100 200
0 0.00081214984 0.0011846861 -0.002089445 -0.0014089071 -0.0001996851 -0.0010349822 -0.00072950334 0.00056888675 -0.0012989473 0.0012442672 -0.00025367527 -0.0013655564 -0.0013620004 -0.0015917977 0.00034140353 0.0020389655 0.0017200322 0.00094512827 -0.0007413322 -7.667299e-05 -0.00218751 0.0017382456 0.0014814367 0.0020144163 0.0023533483 0.0018732776 -0.0009029317 -0.0011390772 -0.0024427094 0.0012098008 0.0022475095 0.0024802103 -0.0014090827 -0.0012041396 0.0020711254 -0.0008570951 0.0007144124 -0.0024950814 -0.0021137095 -0.0013840741 -0.0009458822 -0.0013203298 -0.0006395078 0.0016672448 -0.00039099366 -0.0011517637 0.0022409307 0.0019632266 -0.0018631155 -0.00063668634 0.0013761788 -0.00058964663 -0.00094199413 0.0015961616 -0.0005950057 -8.7547116e-05 -0.00036753574 -0.0013322752 -0.0024209535 -0.002281092 -0.0004687896 -0.002280264 0.00072387396 -0.0024533474 0.00057768077 -0.00016660756 0.001048472 -0.00074163044 -0.0013387983 -0.0016070348 0.0018802085 -0.0014436677 0.000994459 -0.002411836 0.0013856408 -0.0016832873 -0.00156582 -0.0005489794 -0.001445615 0.00046031177 -0.0022307273 0.00037079235 0.00039949128 -0.0013682457 0.00026127556 -0.0019383671 0.00039170706 0.00094547984 0.000996314 -0.00049690134 0.0017152061 -0.0010834988 -1.25966035e-05 0.0013946788 0.00052229874 -0.0011713892 -0.0015102371 -0.00047632377 0.0010806008 -0.0018319215 -0.00015288265 0.0018777684 -0.0021274663 -0.0009050247 0.0011761198 0.0018408918 0.0009811928 0.00020189909 0.0024341503 -0.00081391097 0.0006283766 -0.0014311018 -0.001123631 0.0012955132 -0.0020235984 0.002027478 0.00037315092 0.002277526 0.0019694176 -0.00013139914 -0.0013493752 -0.0009678205 -0.0015568709 0.0003814525 0.0020056148 0.00044151396 0.002456212 -0.00090944173 -1.9684667e-05 -0.0010860104 0.0014418382 0.0017563473 0.0009010581 0.0024773688 0.0014433125 0.00016498007 -0.0016094095 -0.0024135676 -0.0013335951 -0.002326723 0.0014253203 -0.00055355753 0.0019135755 0.0022061975 0.00073182886 0.0017121197 -0.0022666322 -0.00045929127 0.0011218619 0.002414524 -0.0022090268 0.00024239114 -0.00039223442 -0.001431047 -0.0023153306 0.0006027671 -0.000226971 0.0024079932 0.0012322133 0.0023897076 0.00243166 -0.002485768 -0.00087717536 0.0020567751 -0.0011088887 0.002282173 -0.0020435117 -0.0020822077 -0.0011476733 -0.001673713 -0.0018459245 0.00062543596 -0.00082953507 -0.0015924978 0.0015101307 -0.0009434023 -0.0016414407 -0.0007711515 -0.0009280193 0.0012847763 0.0020513847 0.0019608056 0.0013126563 -0.0013785919 0.0024324302 -0.0011748412 -0.0015515515 -0.000621179 0.00046148454 -0.002017302 0.0004791068 0.0008973547 -7.032184e-06 -0.00080797705 -0.0015827697 0.00016812165 0.0016116407 0.00022964156 -0.00084585906 -0.0023181376
1 -0.0018425903 0.002026454 0.00089263613 -0.00020129257 -0.00093738944 0.002340868 -0.0022393805 0.00021502911 -0.0015548357 0.00069271657 0.00040796492 -0.0023396402 0.00093725976 -0.0008524951 0.0020595547 -1.5631085e-05 -0.001608039 0.0014117775 0.00060662604 -0.002168607 -0.0018410399 -0.0023124265 0.000664331 -0.00053042616 0.000645777 0.0001501292 0.0017354786 0.0014799149 -0.0008166203 -0.00046385382 -0.0013557052 0.0010719714 -0.00054894714 -0.0015505168 -0.0017395621 0.0011904177 3.623683e-05 0.0013669285 -0.00036621396 0.0008278508 0.0015133889 0.0006859151 0.00092216255 0.0009913859 0.0017314274 0.00013981131 0.00065743783 0.00037395814 0.0007398573 -0.00044581597 0.00033665868 0.0008684953 -0.0011032178 0.00204624 -0.0002874455 -0.0024424475 8.296245e-05 0.0005040604 -0.0008730552 -0.0022298351 -0.00031506782 0.0015309202 -0.00022245594 0.0006442154 -0.0024021827 -0.0011282542 0.0016084914 0.0014567827 0.0013050351 -0.0004850314 0.0019451454 0.00091244816 0.0010675611 -0.0006263929 -0.0007593143 0.0005713247 -0.0016911483 -0.0020098828 0.00095163845 0.0008839392 0.0015784232 -0.0016175455 0.002111286 -0.00079984986 1.0390766e-05 0.00095675886 -0.0009770953 0.0022912086 -0.0013252705 0.0011643907 0.0021497542 -0.00015472015 0.0011942624 -0.0015974286 -0.0019452333 -0.000573804 -0.0019744374 -0.00012471084 0.0011928121 -0.0015338329 0.0014204611 0.00019950117 0.0008211087 0.000109313754 -0.0005803013 -0.0008284473 0.00046789437 0.0015930664 0.0003977362 -0.0018366539 0.00076947454 0.0020464002 0.00094186235 -0.0018260425 0.002411929 -0.00053414516 0.0017742435 0.0019769133 0.0024787667 -0.00018305145 0.0002455241 -0.0017917724 -0.002497683 -0.00041487673 0.0001935428 0.002304079 -0.0005064737 -0.00014602789 0.00082949013 -0.0018212434 0.0016258643 0.002284964 0.0024680113 -0.0020386495 -0.0015836027 -0.0002158368 -8.234824e-05 -0.0010513327 -0.0023751953 0.0007087465 0.0019144262 -0.00067591283 0.0019533173 -0.0023150053 0.00096977595 0.001242525 0.0005987531 -0.00046572625 -0.00053156936 0.00079827686 -0.0014352386 0.0010983879 0.00039851363 0.00054262346 0.001976993 0.0023688595 0.0009581391 0.0008662855 0.001271948 -0.0022303802 -0.001367808 0.0014300258 -0.0014122817 -0.0012457463 0.0001311726 -0.0016099971 0.0004645423 -0.001205163 -0.0015019643 0.0010720245 3.366149e-05 -0.0006997662 -0.0020012984 -0.0001822887 -0.00011692406 0.0019333633 0.00012175972 0.00049565313 7.456774e-05 1.0001939e-05 0.0004261427 0.0018746103 0.00082547404 0.0006893629 -0.0015810775 0.0013241922 0.0008223767 -0.0006159133 0.00021447358 0.00064305007 0.0008380655 -0.00023953686 3.3490593e-05 0.0013049087 -0.0018246585 0.000402553 0.0015413845 -0.0010955232 -0.0021776608 -0.0020756917
2 -0.0019213997 -0.00077619636 0.0010042277 0.0024534664 -0.001162174 -0.0005452435 0.0003143344 -0.0014378434 -0.00071882876 0.0022637425 0.0009503013 -0.0011079541 -0.002385578 -0.0012607538 0.0019248486 0.0018977658 -0.00050968234 -0.0005401354 -0.0011145851 -0.0012102231 0.00048074895 -0.0008146432 0.001401074 0.0014071306 0.0020424952 0.0010426533 0.00066658575 -0.000708231 -0.00030270638 0.002200243 -0.00014551263 0.0013876252 -0.0001525653 -0.0015866861 0.0019003171 -0.000592325 0.00088587636 0.0013619685 9.437022e-05 0.00011114427 -0.002306255 0.00016443222 -0.0010740748 -0.0017288688 0.00062073 -0.0006126326 -0.00084710657 0.0024324418 0.0006284141 0.00073944917 0.0016696472 -0.0019914103 -0.00085165293 -0.001017952 0.000633423 -0.0018006539 0.0010342717 -0.0014922308 -0.00013862667 -0.0013115391 -0.0014220887 0.0024308325 0.0022254456 0.0016032602 -0.0019646687 0.00026477943 -0.002092095 0.0011299241 -0.000391328 0.0014881315 -0.0017986386 -0.0014117991 0.00028996728 -0.00015184097 -0.00094993354 -0.0024106973 0.00015445799 0.0009913549 0.00037574256 -0.00051358365 -0.0024922946 0.0010794841 0.002478384 0.00079729664 -0.0023772637 -0.0012938142 -0.00021812669 -9.706942e-06 0.0013859856 0.0021472578 0.00013283757 0.0018094718 -0.0024636888 0.00212292 -0.0022051134 -0.0017000991 -0.001977121 -0.0017481318 0.00049632764 -0.0022450166 -0.0011842242 -0.00065817917 0.0015375069 0.0018504383 0.0017939825 0.000614492 -0.0011830565 -0.0017709899 0.0012049389 -0.00014108117 -0.0020982777 -0.0016745856 -0.0015155085 0.0016901549 7.983856e-05 -0.0012608295 -0.0017301338 -0.0010422507 -0.00080764235 0.0013439497 0.0022812812 -0.002025974 -0.0014149767 0.0021612984 0.002045299 -0.0017029548 0.00012411922 0.0009662539 -0.00076487206 0.0007375241 -0.0018838185 0.0015533385 -0.0017713436 -0.0009502983 -0.0012141403 0.00069531146 -0.00074917637 0.0011784381 -0.00071784644 0.00029261177 0.002464071 0.0024290346 0.0016726837 0.0023733522 0.0013697529 0.0013834354 0.0013592539 -0.0012897202 1.2294389e-05 0.0017680223 0.0010625252 -0.0019074497 0.00011496362 0.0008736474 0.0006413951 -0.0010834086 8.43897e-05 0.0016869968 -0.0017251684 0.00023314776 -0.00038017752 -0.0024967182 0.0021094 -0.0015637144 0.0013662323 0.0016000713 0.0002946048 0.002381768 -0.00021840888 0.002423144 0.0003890202 0.0007418473 0.00012815557 -0.00077316014 0.0023366231 0.001462541 0.0010222087 -0.0021174757 0.00052821636 -0.0012483868 0.0023953533 -0.0015972569 0.0019370578 0.0019356986 -0.00095190876 -0.00048724073 -7.0026144e-05 -0.0023172 0.00017117616 0.0010470727 0.0009003165 0.0006992633 0.000601894 -0.0016459918 0.0014228718 -0.0022672522 -0.00050499826 0.00011851452 -0.00073421956 -0.0022054277
3 0.0013696551 6.2102918e-06 0.0019676303 0.0013182207 -0.0022964012 0.0009826794 0.0009012646 2.9304065e-05 0.0021672212 -0.0020275926 0.0004536372 0.0023689908 0.0016205437 -0.0023281234 -0.002386087 -0.0023700665 0.00071136 0.0022783563 -0.0021823188 0.0011948305 -0.0012569275 0.0016647922 0.00019938615 0.00014748145 0.0002116547 -1.2039207e-05 -0.002060638 0.00066060177 0.00019206177 -0.00018059323 0.0009848848 -0.0019212681 -4.483154e-06 0.0020373585 -0.0012074339 0.00093429745 0.000865703 -0.00029882044 -0.0011444384 0.0020229449 0.0021602893 0.0015630112 -0.001759141 -0.00017227535 0.0022003283 -0.00093052536 -0.0010617786 0.0016662991 0.001258635 0.0018010829 -0.0016525642 -0.0013729751 0.0020994851 -0.0017146871 0.002370568 -0.0015527206 -0.0013703584 0.0022192257 0.0004622566 -0.00023484882 -0.0015121823 0.002232628 -0.0011246216 0.00024766335 -0.0016489357 -0.0011376143 0.0019875588 0.00032001804 0.0014197091 -0.0021440217 -0.0013608387 0.0016574087 0.0021580965 -0.0005821994 0.0007763677 0.0022305748 0.00016874284 0.0019754493 0.0020428095 0.0019655344 0.002477936 -0.0022056275 -0.0008842808 -0.00094736845 -0.000500666 0.0013954062 -0.0019789927 -0.0007444152 -0.0017140091 0.001088273 -0.0022491305 0.0008195755 0.0003562083 0.0024278602 0.0024825851 0.0018337234 0.002316861 -0.0019452991 0.0024830801 -0.0007465321 -0.0022972566 0.0023637717 0.00030025514 0.0013101504 0.0014935783 0.00072940206 0.00051292987 0.0022748616 -0.0019372501 -0.0008778542 -0.00078156916 -0.002008051 0.00090244133 -0.0014744195 0.00048299646 -0.0013562539 -0.00072397315 0.00047898432 -0.0017283328 -0.002012686 -0.0019759324 -0.0018126571 0.0024633785 -0.0017485991 -0.00062819116 -0.0014357546 -0.002018412 0.00055469084 0.0021457276 -0.0013477632 0.0022470024 -0.00012577465 -0.0017851269 0.0016254806 0.0012997815 0.00111647 0.0011602272 0.00090648327 -0.00054448564 0.0001977738 0.0012759012 -0.0006912557 0.0008306387 0.0013896397 -0.0024074784 0.001295079 -0.00029860553 -0.0011851832 -0.0023342466 -0.0021477127 0.0015188297 -0.0015540856 -0.0020569256 0.0017548506 -0.0021564607 -0.0002814317 0.002242004 -0.00041642133 0.0014223135 -0.0017336004 -0.0019292149 0.0005560168 0.0017395369 -0.0013086611 -0.0015313444 0.0023257812 0.00011251657 -0.00017284881 -0.002093967 0.001029283 0.0021446575 -0.00073702657 0.00014530518 -0.0018971562 -0.00094681594 0.0013166559 6.4980704e-05 -0.0011426881 0.0014648368 -0.001950055 -0.0021331557 0.0018978063 -0.00119482 -0.0019249045 -0.0015264144 0.00032461435 -0.0013934248 -0.0014229753 -0.0015277255 -0.0002865994 0.0023175725 0.00070815557 0.0022986792 -0.0012812332 0.001940303 0.00018703169 -0.001620256 -0.0008675492 0.0007039604 -0.0018768555
4 8.58102e-05 0.0021562628 0.0024937834 -0.00149944 0.0021260474 -0.00087647827 -0.0015335974 0.0010479549 0.0014320919 0.0016724602 0.001712014 -0.0018990802 0.0020639524 0.0020938162 -0.0003339518 -0.000730735 -0.0011923739 -0.0015435973 -0.0007429981 0.0016288115 -0.0019408967 0.0017164252 0.0020222869 -0.00093115657 -0.0005673355 0.00039878 -0.0007756826 0.00026138104 -0.0022017339 0.0018605469 0.0006306148 0.0010067387 0.00020427443 -0.0017536363 -0.0020886534 -0.001386733 0.00071084104 0.0024830229 -0.0011556267 0.00075956015 -0.0008075031 0.0022148844 -0.00016163848 0.0023771035 -0.0013354245 -4.4656685e-05 0.0007958263 0.0019167978 -0.0003061702 -0.0020246052 0.00227449 0.0005770058 -0.0019569898 0.001722658 0.00058820285 -0.001159279 0.001332399 0.0019125626 -0.00010637124 0.001519924 -0.0010392916 0.0014502099 -0.0007459613 -0.00049038907 -0.0024991932 -0.00018498581 0.0014066757 0.00031289132 0.0010202932 0.0011966946 0.0012959787 0.00072874967 -0.0006930423 0.0016302327 -0.0013176039 -0.0020041435 -0.0024908546 0.0006210094 -2.9089395e-05 -0.0015831005 0.0024615307 -3.0147843e-05 -0.0017616802 0.002416403 0.0004955926 0.0024065794 0.0007205119 0.00076210406 -0.0018680661 -0.0011273149 -0.001792652 0.00010665087 0.0013720084 0.00014888169 0.001024276 -0.0016709557 0.0001615507 -1.1461321e-05 0.0021764836 -0.0020146063 0.00034962897 0.001816581 0.0013478342 -0.0018647038 -0.001131117 0.0019591097 -0.0011474135 -0.0009491056 -0.0017368468 0.0004901192 -0.001570374 0.001938276 -0.0022008414 -0.00012155832 0.00022638799 0.00054502697 0.0005382963 0.0019149957 -0.0017852604 -0.0014599907 0.00100124 -0.0004300042 0.0007152811 -0.00046624988 0.002145587 -0.00023594964 0.00050839665 0.0008815536 0.0020029698 0.0015579243 0.0002707278 -0.0012938606 0.0005733508 -0.0002758475 0.0018137088 -0.002011282 -0.002105816 -0.0015812203 -0.0011196291 0.0019664252 -0.00059937895 0.0009162 -0.0014376971 -0.0017396254 -0.002199479 0.0013528808 -7.9214806e-05 0.0012646692 0.00035942905 0.0019233185 0.0021947403 -0.0020875146 -0.0019399226 0.002108578 -0.00023097754 -0.00058655883 0.0015664576 -0.00032724626 0.00246259 -0.00045450358 -0.0024612306 0.0011555871 0.0007790283 -0.0007948637 0.0016960497 -0.0016546547 0.0004945416 -0.0013720369 0.000602674 0.0020464538 -0.00072357326 -0.0012502482 0.0020506657 0.00033137458 0.0005881083 -0.0013613709 0.0022317222 0.0017893407 -0.0006512448 -0.0010618314 0.0020210333 0.001475784 -0.0005829411 0.0015594992 0.0006251312 -0.0011663389 -0.0019710166 -0.0018886036 -0.0019631174 0.00041999668 0.001206011 -0.0013750332 -0.0012577507 -0.00031589577 0.0015120665 -0.0010633268 -0.0014035335 -0.0014581587 0.0016972013 -0.001389758
5 0.00087495754 -0.001805394 -0.001978641 0.0008385782 -0.00044672843 -0.0014942384 -0.0018224308 -0.00052727084 -0.0019529839 -0.0013848102 0.0013493309 0.0017201928 0.0006270942 0.00043141027 -0.0020329054 0.0018226607 0.0018733786 0.00095159444 -0.00056048424 0.0022702361 0.0013221768 -0.0019261866 0.0016192021 0.0020293044 0.0012468582 -0.0010576391 0.0012245255 0.0014711339 -0.0019184228 0.0022078683 0.0020732335 0.002157934 -0.0018218914 0.00016000029 0.001484918 0.002149179 -0.0015658704 -0.0021311068 0.0012772826 0.00015939958 -0.0012587326 -8.550263e-05 -0.000415948 0.0005569237 0.0020766784 0.00065662223 0.0002513919 -0.0013612723 -0.0018651751 0.0018876628 -0.00018191873 -0.0013960537 0.0003181051 -0.0021093383 -0.0015730234 -5.4466072e-05 0.0005254706 0.0002270427 -0.0005493864 0.00038269348 0.0022844877 -0.0013192776 -0.001563699 -0.00027123326 0.000661548 0.0016377391 -0.00046692463 -0.00047245296 0.0012287581 0.0008119121 -0.00010164641 0.001752567 0.00015952415 0.0010083222 0.0012409112 0.00015750644 0.0022209869 -0.0012315986 -0.0018760969 0.0015042322 -0.0006056911 0.001092711 0.0012326131 -0.0012531048 0.0020165695 -0.0013991818 -0.001374954 -0.0024911389 0.0015632478 -0.0021916672 0.0017137714 -0.00055219594 -0.0011296293 -0.0019559988 -0.0022716608 -0.001534227 -0.0021109125 0.00038624695 0.001423067 0.0012689563 0.0017857016 -0.0024877535 -0.00034422893 0.0020412882 -0.0002336991 0.0013625429 -0.002195927 -0.0015885904 0.0006324565 0.0010691236 -0.0023909225 -0.0007938921 -0.0022231552 -0.0003540162 -0.0022791233 0.0011585203 0.0007000086 -0.0019935688 0.00058989436 -0.00028085406 0.0017404575 0.0015015085 -0.0019478914 -0.001208918 0.00061935955 -0.0014749318 0.00037549948 -0.00034446502 -0.0005192575 -0.00037612463 -0.00229703 -0.0009011951 0.0014961595 0.0022130902 0.0023945463 0.0010204772 -0.0012789285 0.0009207942 -0.00115372 0.002121427 0.0022856104 0.0013312367 0.000786843 0.0008990234 0.0023730863 -0.00024667731 -0.00011247792 -0.002348967 -0.0012573967 0.00054797623 -0.00043740217 0.0022148 0.00087427325 0.0009137115 0.0013095322 -0.00063527736 7.09116e-05 -0.0015692642 -0.0015899807 0.0013613061 0.0008975917 -0.001176308 0.002190778 0.0020218198 -0.001670908 0.0018944689 0.0015809392 -0.0019100842 -0.0014355028 0.00016739103 0.001277107 0.001368765 -0.0020110328 0.0017588795 -0.0015582066 0.00033516157 -0.0015576475 -0.0020592925 0.0016893647 0.0019576945 0.0019369102 -0.002293273 -0.0017510944 -0.0016366547 -0.00049925083 -0.00018007588 0.00074138097 0.00068618916 -7.088808e-05 -3.0536903e-05 0.002489034 0.001543595 -0.0008280837 0.000249787 -0.0013113376 0.00051465235 0.00039184513 0.002316297 -0.0020897826 0.0015976145
6 -0.0011236968 -0.002058259 -0.002135905 0.0015542815 -1.8803403e-06 0.0020269514 -0.0006029797 0.00067156437 0.00069888355 -0.00078325334 -0.000745947 -0.0020861845 -0.0014860143 -0.0014375057 -0.0012770846 -0.0024288914 -0.00089768553 0.0017356686 -0.000575189 -0.0005243269 0.00020117173 -0.002321056 0.0007709488 -0.0006520465 -0.0013756496 -0.0024014667 -0.001485067 -0.0011201253 0.001979203 -0.0002907901 -0.00086772884 0.001924126 0.0016729888 0.0011406541 0.0008527236 -0.0015589293 0.0009986251 0.0020449976 0.0014624353 -0.00022784877 0.0015874989 2.6080292e-05 9.984081e-05 -0.00052699586 -0.0011304974 -0.00045133848 -0.0005071338 0.0011970589 0.00096705765 -0.0014804455 0.00038411678 -0.0014015054 -0.002052298 -0.00059463945 -0.0009834319 -0.00058405194 0.0019302373 0.0015993263 0.00014129514 0.00014389702 0.0012136879 0.0004254768 -0.0023292878 -0.002329785 -0.0010418325 -0.0013128063 -0.0021576614 0.0014396938 -0.0024380288 0.0016219965 -0.0006736305 -0.0010778906 0.0001372206 0.000647384 -0.00021834904 0.0008703326 0.0009971336 0.0010384368 -0.00048822095 0.0023749247 0.0006494075 0.0018469277 0.0009055077 -0.0001875388 0.002335664 0.0019950662 -0.0015858072 0.0024857768 -0.0014317355 -0.0008540818 -0.00056515005 -3.619399e-05 0.0017997227 0.0021598223 -0.0012560447 -0.0005864564 -0.0008576774 0.0014688903 -0.0017976704 -0.00025093253 -0.0009840643 -0.00057668774 -0.0015773588 0.00010519242 -0.0010581756 -0.0007679835 -0.0009460079 -0.0010311273 0.00041763205 -0.0015484109 -0.0011452874 0.0009308981 0.0009303512 0.0010616702 -0.0003430245 0.0004410711 0.0023302985 -0.0011369172 0.00034760032 8.732756e-05 1.5437836e-05 0.0015780441 -0.0012862247 -0.002194954 0.0022806758 -0.00013845647 0.0024281843 -0.0011559167 0.00074005267 -0.0017888858 -0.002468958 0.0022929255 -0.001428841 0.0002055266 -0.0021361986 -0.00033898884 -0.0015773252 0.0015858272 -0.0012088749 -0.0005306867 -0.0009700039 -0.0015289655 0.00019842712 0.0008444714 0.00075198803 0.0023187776 0.00041957828 -0.0014564871 0.0005159888 0.0019155238 -0.0015381009 0.0017866618 -7.4425014e-05 0.0024980684 0.0019572908 0.0023918916 0.00046772067 0.0012013044 0.0015050257 0.0014607627 -0.0003404012 -0.0010410964 -0.0010044867 -0.001266388 -0.0012537843 -0.0002707448 -0.0024801067 -0.0013096553 0.00069756946 -0.0012417734 0.00031166244 -0.0013235125 0.0018139458 -0.0017426133 -0.00021553994 0.0013567647 0.0016300846 -0.0013901549 0.001923867 0.002373342 -0.001714647 0.0021971026 -0.0019736043 0.0023242831 0.001385133 0.0014095088 -0.00061901065 0.0006021806 -0.0002233691 0.0014837091 -0.000994055 0.00038990378 -0.0021298102 -0.00083135336 -0.0007680976 -0.0022893504 0.0018933062 0.0010105358 -0.0017768138 -0.0018822039
7 3.742287e-06 0.00022153999 -0.00059716904 0.00012752344 -0.00084032957 0.0015332983 -0.0021298954 -0.0023226403 0.001840808 -0.0024466598 -0.00042789732 -0.0011171865 -0.0005032725 0.0007124925 -1.8273015e-05 -0.0011897099 -0.00045740278 -0.0017474489 -0.0013399759 -0.00045723142 0.0007924002 0.000100136735 -0.0014077496 4.563993e-05 0.0020634742 -0.0017778599 0.0005640865 0.00036963262 -0.0010587311 -0.0016424897 0.0006547964 0.0021584663 -0.001654815 0.0002979047 0.0017935704 -2.2765948e-05 0.0014074552 -0.0018705913 -0.0007359886 0.00017448817 -0.0009258449 0.0013085133 0.0018182327 -0.0004312431 0.0015815026 -0.0012803045 -0.0006893957 -0.00033809873 -0.0004890328 0.002144887 -0.0011641252 -0.0019284221 0.00050222734 0.0020739771 0.001457945 -0.0015131017 0.0012621931 0.0011734834 0.00058993837 -0.00063001993 -6.377371e-05 -0.0021106983 -0.0011721735 -0.0017998614 0.0016444074 -0.0013092344 0.0014333073 0.0016500889 -0.001164611 0.0021424494 0.0014779079 -0.0018043432 -0.0019113505 -0.00025647692 0.0022566319 -0.00084197405 -0.0011141056 0.00024354667 0.00061932206 -0.0010548154 -0.0010523188 0.00025170646 0.00084735267 0.00020775432 -0.00022019632 -0.00095763174 -0.00060788007 -0.0008915999 -0.0005840134 -0.001724694 -0.00023307838 0.0005080644 -0.0014214361 0.0012088949 -0.00034258584 -0.00016171043 -0.002026867 0.0015930273 0.002236661 -0.0012451428 0.0019999854 0.0005740016 -0.0012301228 -0.00063315895 -0.001003307 6.188173e-05 -0.00055921555 0.00023898622 -0.0009888303 -0.00041895336 -0.001377207 0.00047018146 0.0003520802 -0.00092420937 -0.0019038459 0.0020770011 -0.0017864623 0.0007598051 -0.0006418952 -0.0016479265 -0.00083681254 0.00091250264 -0.0008921033 0.00088942284 -0.0021715825 -0.0010479179 0.0013728549 -0.0006489861 -0.00042163068 -0.0011866727 -0.0015022864 0.0016224133 0.0006173905 0.0019897362 -0.0010099828 0.0014560018 0.001215514 0.0016959095 0.0018296898 0.0019154483 0.00061236764 -0.00080150005 -0.0014542878 1.2483913e-05 -0.0018138662 -0.00033400068 -0.0010419434 -0.0014742512 0.001786307 0.00093740225 -0.0003243375 -0.0007824054 0.00078156195 -0.00082545576 -0.0013267148 0.0016230796 -0.0013697594 -0.0014371914 -0.0006015479 0.0020075892 0.0020170445 9.3221664e-05 -0.0016041064 -0.0011406469 -0.00010890304 0.0014875997 -0.0024910707 -0.00209364 -0.001742515 0.000615397 0.00038304925 -0.0010634369 0.0023859264 -0.0019659563 0.0013640467 0.0014416752 -0.001462507 -0.0015266093 -0.0017938649 0.0001357561 -0.0012546044 0.00012255902 0.0023142681 0.00041973777 0.0016511893 -0.0020935633 -0.00046288245 0.0012908673 0.0007350149 -0.0018302961 0.0014736531 -0.0002906418 0.0012248084 0.0001066518 0.0009541905 -0.0022793056 0.00082435063 -0.0017803176 0.0018235077 -0.0018615576
8 -0.0019100055 -0.0014731326 0.00107595 0.0021529412 0.0022307723 0.0009124654 0.00062895915 0.0019081654 -0.0007341325 0.0014279825 -0.0005825573 0.002251423 0.0016712281 0.0006906199 -0.0021596365 4.558917e-05 -0.00067777093 0.00048481394 -0.0022838872 8.447678e-05 -0.0021101139 0.0018659472 -0.002334596 -0.0021507156 0.0023991773 -0.0012930509 -0.00026183645 -0.0006996023 -0.0023492253 -0.00079061114 -0.001262111 0.0007325795 -0.0021472606 -0.0024960958 -0.0011381423 -0.0007753199 0.0019174139 -0.0007509998 0.0004064974 -0.0017574218 0.0012972334 -0.0018710985 0.0011406147 -0.0021365404 0.00019481545 0.0020342157 0.0012332019 -8.379575e-07 -0.0011285892 -0.000789091 0.0014100303 -0.0012926253 -1.6725156e-05 0.00035321573 0.0010884716 -0.0013408195 -0.0015625157 -0.00012770505 -0.000701659 -0.0017320525 0.0003255969 -0.0013435757 0.002398333 0.0018515144 -0.0011285066 -0.00090474694 0.0013023636 -0.0005119096 -0.00053971703 0.0012254205 0.0009375573 0.0011666624 -0.00090270245 -0.00211803 0.000415829 -0.002465243 -0.0012679704 0.00051388005 0.0005720621 -0.000344852 0.0016531958 0.0020328886 -0.002145117 0.0009907952 0.0006973478 0.0016881023 -4.97601e-05 0.002274916 0.001595973 0.0006741872 0.0023185108 -0.0006365839 -0.0018510073 -0.0010785692 0.0011481722 -0.0013630446 -0.0020873977 -0.0014042878 0.0008590275 -0.0022184723 0.0018240344 0.0014107712 1.360476e-05 0.00011075172 0.00028708926 -0.0007673389 0.0016312012 0.0011949963 -0.00073156983 -0.00023034611 0.00039666402 -0.0024886534 -0.0016271016 0.0015368373 0.0012417438 -0.00029123062 -0.00040013203 0.0013216883 -0.0016230356 0.0010616358 0.0009320765 -0.000105006155 0.0017471262 0.00035024993 -0.0010359465 -0.0010256687 -0.0016480598 -0.0011629969 -0.0020073745 0.001658604 0.001907398 0.0010076812 0.0022384087 -0.0018281459 0.0012126993 0.00073350477 0.0020125648 1.0283664e-05 -0.0017957187 -0.0018640035 0.0010626114 0.0007797987 -0.0021406582 0.0016495129 -0.00045439485 0.00023573567 -0.0024833817 -0.0024575242 0.0019350825 0.0015694052 0.0012430148 -0.001626628 0.0015337444 -0.00012276624 -0.002043197 -0.0015750381 -0.0011862537 -0.0012969566 -0.001999441 0.0014947015 0.0020304127 -0.0022042014 0.0014975341 0.0020028348 -0.0015793481 -0.0017746473 -0.0015989605 -0.0012581658 0.0014479533 -0.0019986804 0.0014452902 -0.001224586 -0.0014639535 -0.00093254563 -0.0002800948 -0.0014891454 0.0015865047 0.0011777291 0.00224321 -2.3820437e-05 0.0016631959 0.00011561182 -0.0022984233 -0.00076214934 0.00077127595 -0.0017170274 0.0005810049 -0.0007090935 8.274149e-05 -0.0013278746 -0.0017707585 0.0022006277 -0.0020925398 -2.7718488e-06 0.002357143 3.390247e-05 -0.002170552 -0.0011734947 -0.0015694463 -0.0020870396
9 0.00079801027 0.0011336484 -0.0016933978 0.002058153 -0.00054896646 0.0024240115 -0.0024499025 -0.0022494812 -0.00033141882 -0.00094596925 0.0018700748 -0.0003888139 6.931601e-05 0.0022686655 0.002165413 -0.002315393 0.0019125626 7.501594e-05 -0.0014423415 0.0004798444 0.0017164601 0.0004203606 0.0013774699 0.0013772992 -0.0019095617 0.0015242626 0.0009112756 0.00036790245 -0.0010263502 -0.0024629687 0.0010919883 0.0008168388 -0.0011984559 -0.00078728225 0.00063539157 0.00029661623 -0.0021334523 -2.1078624e-05 0.0022389595 -0.0023018532 0.00011060806 0.0015291581 0.0019426309 0.002246899 -0.00017823954 0.0003368389 0.001002071 -0.0022535361 -0.0016757029 0.0013701888 0.0014314526 -0.00014408678 -0.0008039847 -0.0008572065 0.00044892286 -0.0014746514 -0.00097456423 -0.00096250477 -0.0024972865 -0.0016343945 -0.00081869215 -0.0020283067 -0.002329365 -0.00011388399 -0.000120590674 0.00069350656 -0.0008686229 0.0019674674 -0.0022054678 -0.0013238826 0.0013657236 0.0010871103 0.0018115989 0.00081825163 -0.0014961716 -0.0012743947 0.0018561399 0.0019863285 -0.0012491953 -0.0012566146 0.002264705 0.001588041 0.00026631658 -0.0018857291 0.0022174506 0.0013458913 9.4051706e-05 0.00022228807 0.0016427813 -0.0024434978 4.654168e-05 0.0020082644 0.001251304 0.0017963196 0.0024424377 0.0011120983 0.0018197568 0.0020007216 -0.0018751234 0.0008035186 -0.0009393197 -0.00083584455 -0.0021692142 -0.0020752435 -0.001967432 -0.0017431718 -2.5252113e-05 0.0005339938 -0.00040856516 -0.0023279532 -0.0010198557 -0.0019402634 -0.0005643857 -0.0013651162 0.0005801462 0.0021838387 0.00031856098 0.00017993269 -0.0017167823 -0.001789622 -0.0022494702 0.0017298362 0.0016677417 -0.000597924 -0.0013653535 -0.0014261514 0.0009839912 0.0005087594 0.002094855 -0.00027885917 0.0007936314 -0.0011412314 0.001166543 -0.00092782674 0.00040327455 -0.0010243162 0.0023608063 0.0020458433 0.0014134343 -0.00012423657 7.335935e-05 0.001516487 -0.0008565241 0.00066783046 -0.0007422349 -0.0015373146 -0.00063494476 0.00097023486 0.0009816557 0.0011800337 -0.00042202766 0.0006490827 -0.0022582563 0.0024212166 -0.00017945073 -0.0015716931 0.001487772 0.0010203209 -0.0019089291 0.0022257129 0.0021448736 -0.0019023833 0.0017747087 0.0019010939 -0.0010001411 -0.0009921902 -0.0023624008 0.0012538764 -0.0017087506 -0.0022531995 -0.00077222136 -0.0014992186 -0.0021462827 0.0017240252 -0.0009922275 -0.00052727084 0.0008612145 0.00042138365 -0.0018458071 -8.6017186e-05 0.0023655058 0.0012272967 0.001636879 -0.0010991165 0.0019220579 -0.0014694929 -0.0011804729 -0.0006198257 0.0020982185 -0.002126316 0.0023698364 0.0012473522 -0.0013730561 0.0019771247 0.0018708506 0.0014265366 -0.0016301298 0.0021200757 -0.00020078686 -0.00027229148
10 0.0021967897 0.0016513853 0.0023306916 0.0019559315 6.9745816e-05 0.0020806198 0.00018578954 0.0015767151 -0.00036980398 -0.0019966334 -0.0015693074 0.0014034542 0.0007986303 0.0014654617 -0.0021788683 0.0016643829 0.00039199973 0.001264408 -0.0011873561 6.19411e-05 0.002238222 0.00012135785 -0.00014824606 -0.0003879154 0.0020803036 -0.0013125845 -0.0021937457 -0.00031773443 -0.0007518857 0.00044643763 -0.0013258379 0.0011568621 -0.00024110056 0.0010033082 -0.0017186564 -0.0023395387 0.0011010151 -0.00051328517 0.0017797993 -0.0014533355 0.00027222722 -0.001209738 -0.002046692 0.0005570224 -0.0023158398 -0.0013886285 0.001228526 -0.0015703987 -0.0013077756 -0.0004701945 -0.0013030529 0.0020957766 0.0014588889 -0.0007989472 -0.00020094356 0.0017782701 0.0020265747 -0.002363496 -0.0023890063 -0.0007043361 0.002182751 -4.9400143e-05 -0.0017109248 0.00040235603 -0.0010455045 0.0024879733 -0.0009329909 0.000496692 -0.0012408455 0.00014510029 0.00019240612 0.00036803284 0.0016582832 0.0008270538 -0.0011157086 -0.0010913286 -0.0012376958 0.0022908906 0.001971831 0.0008100716 -0.0007067218 0.0009971391 0.0019455217 -0.00044376543 0.0024671531 0.0017716894 -0.0009687942 -0.0024275538 -0.002214169 -0.0013097659 0.00074449717 0.00052409596 0.0012762195 -0.00083645375 0.0012964148 0.0017660945 -9.35928e-05 0.00029073865 0.00078142853 0.0009459872 -0.00048690406 0.0004574561 0.00093254447 0.00079809874 0.00038194098 0.002478199 -0.0017667245 -0.0007961693 -0.0020709778 -0.0021747532 0.0013339173 0.001977467 0.0007785987 -0.00087396265 0.0010142233 -0.0010122516 0.002409535 -0.00018453458 0.0006504208 0.0015389277 -0.0014868543 -0.0005047363 -0.00037327083 0.0023934687 -0.002175344 -0.0022490874 0.0006374784 -0.0023993163 -0.002044168 -0.0021716093 0.0008942392 0.0020540128 -0.0015254524 -0.0013641536 0.0013360449 0.00071761804 0.0008845702 -0.0020338404 0.0019883066 -0.0019274442 0.0006917862 0.0019125375 0.0010339352 0.0016862578 0.00218319 -0.00052471645 0.0004941218 0.0024529602 -4.7287438e-05 -0.001452522 0.0007515191 -0.002084417 0.0014713346 -0.00087272015 0.001554613 0.00047842716 -0.00030540372 0.0018770029 0.00010030088 -0.002489826 -0.0017872627 -0.0022334126 0.0019029519 -0.0010807848 0.0021019862 -0.0005359051 -0.0019133439 0.0020304467 -0.0014621436 0.0014585005 0.0024429257 -0.0012120786 0.0009179958 0.00036134385 0.0019023521 0.002363667 0.0014353385 -0.0016775848 0.0024585538 0.00011950382 -0.0019209215 0.0014328258 0.0017025741 -0.0009473264 0.0022618738 0.0017343545 0.00150174 0.0018588663 0.00094581954 0.00020592893 -0.0020207076 0.0010512949 -0.0015312317 -0.0005674758 -0.00071647647 0.0004959018 -0.00059452886 0.00075136754 0.0017280919 -0.0015951114
11 0.0019276892 0.002022395 -0.00039887498 -0.0014364985 -0.00033256924 -0.0024767981 -0.000989849 -0.0018288159 0.0012683815 -0.002270467 -0.002357465 -0.0023373163 0.0010604968 -0.0002339345 -0.0006318989 0.00018775114 0.0016344474 0.00084785814 -0.0022806386 -0.0010492601 -0.0009677798 -0.00080925727 -0.0012334964 0.0017492268 -0.0022220921 -0.0014338755 -0.0011613774 0.0017694514 -0.0013127106 -0.002380132 0.0012495497 -0.0006026662 -0.0014451807 0.0015175785 0.0023865346 -0.00031016744 -0.00023941486 0.0014281101 0.00019945833 0.00063984096 -0.0016681491 0.00093674543 0.0002954104 0.0005691827 -0.0002768007 0.00031120866 3.0074036e-05 4.6845526e-06 -0.00031005684 -0.0021306267 0.00086250575 -0.000812968 -0.0015385442 0.0003785044 0.00024763378 -0.0007955086 0.0006155276 -0.0019946548 0.00069709774 -0.002304467 -0.0019212773 0.0005320839 -0.001177949 0.0014991169 -0.0015201055 0.0023775562 -0.0018022322 0.0008158053 0.00041296892 0.001922966 0.0024432144 0.0015551322 0.0013612725 -0.0017168635 -9.576441e-05 -0.0005098616 -0.00073361874 -0.0011753556 0.0010815489 0.0022064457 -0.001569974 0.0019529639 -0.00065914297 0.0017832639 0.0014608419 -0.00095733313 0.00086774654 -0.0006858548 0.002270319 0.0009398472 -0.0019018358 3.972347e-05 -0.0005471095 -0.0015858954 -0.0008045158 0.0016487762 0.0012785723 0.000866937 -0.002218595 -0.0018600004 -0.0011988928 0.001115585 -0.0020615777 0.0012279036 -0.0020515076 -0.0022980394 -0.0010494479 0.0018515694 0.000637247 4.601595e-05 -0.0022689672 0.00018213503 -0.0018547829 8.5536856e-05 -0.0015004434 0.0014002179 0.0010775363 -0.0008531939 -0.00011344021 -0.0019086787 -0.0016485017 -0.0018020219 -0.00079775543 -0.0008260021 0.0014669243 -0.0024194415 -0.0009746903 0.0022237324 -0.001654599 0.0018432103 0.0018381006 7.45079e-05 0.0011040855 0.0016985256 -0.000716654 0.0019510649 -0.0008195677 0.0021741758 -0.00021089287 0.0016168342 -0.0010725564 0.0013790319 0.0019901977 -0.0018948856 0.0023702113 -0.00070000405 -0.0016479075 -0.0007075977 0.001687008 -0.0016063746 -0.0022641376 -0.00053403084 0.001955356 0.00032979157 -0.00027068262 -0.0023344648 0.00023834757 -0.001602897 0.0023397892 -0.0014982509 0.00078511867 -0.000901207 0.0014353227 -0.00014990335 -0.0022340077 -0.0023979538 0.0006113241 -0.00065339624 0.0006152198 -0.00067553367 -0.00026768423 0.00049716025 -0.00019798102 -0.00054487516 -0.000843409 -0.0010354584 0.0024293838 0.000805391 0.0024464712 -0.0006868943 -0.0014344361 -0.0016235244 0.0015260857 -0.000444273 -0.00017104903 0.0018128161 -0.0014649259 -0.0021032023 0.0007536495 -0.00011038268 -0.0014455899 -0.0005170384 0.00014839438 0.0005424048 0.0010430648 -0.0008450559 0.0022184276 -0.0013615602 0.0015118271 -0.0020851162
12 -0.0011635962 -0.0018811175 -0.0016513201 0.00076684984 0.0022492823 0.0020980076 -0.0016273423 0.0019763806 -0.0021843102 0.0019002822 0.00087588467 -0.0011635876 -0.0015152284 -0.00077978545 -0.001631946 -0.0017828208 -0.0024528601 0.0023092097 0.00026377197 3.6071287e-05 -8.7595545e-05 -0.0021043667 -0.0013033199 -0.0012718627 -0.0020436042 9.264331e-06 -0.00023304857 0.0010537528 -0.0011879303 0.0004835662 0.0009716139 0.0014787093 -0.001609287 -0.0023764125 -0.00030109705 0.0017804042 0.00092081865 0.00090601295 0.00042314688 0.0022823159 0.00066640205 -0.0006985557 -0.000756531 0.00019688276 0.0018907106 0.00076718535 -0.0017045265 -0.0003663986 0.0016386388 -0.0016291917 -0.0019770204 -0.00022361008 0.0011736755 0.0009052658 0.0022297804 -0.0024578453 -0.00012581819 0.0012996125 -0.0017239775 0.0015264088 -0.0019598906 -5.930802e-05 -0.0004354436 0.0023193099 0.0014213873 0.0024502864 -0.0015445084 0.0023868214 -0.000838713 -0.00038853358 -0.0016634201 0.0024504447 0.0011414064 -0.00039196457 0.0012502712 -0.0017964768 -0.0015357452 -0.0021272483 0.0010695297 0.0012837965 0.0005795669 0.0010398787 0.0023711608 0.0003376978 -0.00039442186 -0.000716691 0.002093865 0.001732171 0.00035115238 0.0023626168 -0.0019230044 -0.0024016313 0.0019322652 0.0015341025 -0.0010352448 0.00075505185 -0.0010150927 -0.0012454211 -0.0023730795 0.0024673776 0.002465725 -0.0012184796 0.0012054138 0.0011083835 0.0015435107 0.0014838264 0.0023218486 0.000277831 -0.0006126538 0.00097408076 0.0012348224 0.0006474706 0.00041882484 -0.00020749331 -4.7763577e-05 -0.0013714671 0.00018110406 -0.0023136367 -0.0007875449 0.0007340417 0.0018115677 0.0022318144 0.0024486594 -0.00011810637 0.0017989217 0.0007086897 0.0012816256 0.002036918 -0.001002173 0.0024002367 -0.0011346483 -0.0023170672 -0.00036697485 0.0002611142 -0.0013452634 -0.002142651 0.0011048289 0.0001579232 -0.0002557058 -0.0005000478 -0.0010839602 -0.0013547778 0.0019928063 -0.0016376579 0.00034736632 0.00017866353 -0.0013700181 0.00031814794 -0.00045876112 -0.0012478099 -0.0011777356 0.0013097604 -0.0016032525 -0.00093827664 0.0008126104 0.00076961634 0.00080971885 0.00012222049 0.0021318193 -0.0012533814 4.5845518e-05 0.0011862612 -0.0008551264 -0.001297613 -0.0016978794 0.000295921 -0.00018760259 0.0011458911 -0.00035802252 -0.0012142792 0.0024720156 -0.00013574539 0.0015789168 0.0011706799 -0.0017867023 -0.0016698414 0.0014525522 -8.91306e-05 -0.0016919386 0.0009512401 -0.0006378511 7.564016e-05 0.0013508408 0.00025025685 -0.00044783973 0.0011983432 0.0012712893 0.00011856505 -0.00040204008 -0.0016693743 -0.001151638 -4.308857e-05 -0.0012170323 -0.0015017068 0.0015169326 0.0014061395 -0.0007298648 0.00038642343 0.0011982699 -6.009126e-05
13 0.0012100905 0.0006620132 -0.00091654656 -0.0010995361 -0.0017524392 -0.001192654 0.0014979304 -0.00064173515 0.00035111583 0.0009907454 0.00095824245 0.0017650966 0.0007361497 -0.0022734536 0.0010237957 0.0014803512 0.0017342889 0.0007850595 0.0008123596 0.001834684 0.0015992755 0.0017169858 -0.00028106384 -0.0014062193 -0.0015468817 -0.0016749811 -0.0002203947 -0.0018950882 -0.0017080363 0.0013824499 7.980177e-05 0.000695677 -0.00045308145 0.0011328964 -0.00059649104 0.0016644988 0.0020055831 0.0018274812 -0.0011083698 -0.00014802138 1.9692816e-06 -0.00022449763 0.0017041522 -0.0022342962 -0.0012993478 -0.0008711943 -0.00017311564 -0.0009818018 -0.0009942496 -0.0023601558 -0.00043769297 0.0009997773 0.002281622 -0.0006097063 -0.0016605172 0.0018427763 -0.0006952202 0.0011745503 -3.49232e-05 0.0018538735 0.0011737759 -0.0019405817 0.0007401989 0.0013361096 -0.0020480582 -0.002366026 -0.00071154686 0.0010383553 -0.0014604554 -0.00076659047 0.0017499612 -0.002317911 0.0010018488 -4.9158232e-05 -0.0017388903 0.0003755039 0.0020323093 -0.0017854702 0.0015767147 -0.00011369656 -8.69527e-05 -0.0010727209 0.0024898923 -0.00015537348 0.0004943134 -0.0007374954 0.0019802311 -0.0009840393 0.0004410171 -0.0016148421 0.0001891763 0.0017889673 0.00086075 0.00085671176 -0.0022294633 0.0019472186 -0.0006607255 -0.00075624883 -0.002337059 0.0020413166 0.0014451868 -0.0019829285 -0.0017517358 0.0001559176 0.0022792285 0.0012135787 -0.00032642344 0.0010588169 -0.00226119 0.0014756112 -0.0014998963 0.0020413315 -0.0009713259 -0.0005637264 0.00061641657 -0.0020855581 -0.0017535877 0.0007795587 -0.0009064609 -0.00078622904 -0.00064268464 3.434997e-05 0.0012352918 -0.00036991574 -0.0024059024 -0.0014238536 -0.0016615557 0.0006656151 0.0013704926 -0.0018106648 -0.0011413636 -0.0017131584 0.0003798469 -0.0014386252 0.0010232669 0.0006869957 -0.0022197168 -0.00057759974 -0.0016454321 -0.00042452128 -0.0011010023 0.0018510697 1.2920704e-05 0.0005532496 0.0017337138 -0.0011055645 -0.0020040167 -0.0011446514 0.0019507678 -0.001019333 -0.002147944 1.0011718e-06 -0.001356051 -0.00040892442 0.001711099 -0.0013628575 0.0011405842 0.0014609946 0.0010642135 -0.0004898298 0.00095882174 -0.0024584606 0.0008115268 -0.00040325918 0.00055717165 0.0018102862 -0.0009907362 0.00102784 -0.0016710972 -0.0013536364 0.00086861895 0.00043631275 0.0011491815 -0.0005300578 -0.0024250553 -0.0011736497 0.0024248846 -0.0007739449 -0.0015852163 -0.001144875 -0.00199526 0.0008753494 -0.0006460672 -0.0023065575 -0.0014040363 -0.00084321434 -0.001172657 0.00236161 -0.0014646283 -0.00020406512 0.0022569913 -0.002223026 -0.002320107 0.0010451663 0.0014889324 -0.0021554965 -0.0014340954 0.0023470423 0.00071124197 -0.0010300397
14 -0.0021902486 0.0008846221 -2.2390857e-05 -0.0019549753 -0.0018105167 0.0011773703 -0.0011748796 0.0011893853 0.0009554664 0.00049039745 -0.0012860799 -0.0018523356 -0.0006465536 -0.00030143908 -0.0007780164 -0.0014087214 -0.0010612571 0.0002674081 -0.0021969855 -0.00038384204 0.00066287164 1.79708e-05 -0.00070833915 0.0020613456 -7.1758404e-07 8.3623454e-05 -0.0023891532 0.00088702166 -0.00226711 -2.2472814e-06 0.0018641325 -0.0022842186 0.0010805598 -0.00066614174 -0.0021137074 -5.4592267e-05 -0.00084340514 -0.0014512243 -0.0007809114 -0.002453962 -0.0013082799 2.5388552e-05 -1.2922566e-05 0.0024757585 0.0013000313 -0.0018388268 -0.00094268087 0.00076340605 -0.00016399566 0.0019450788 0.002255023 0.00047350605 -0.0008428028 -0.0010202494 -0.0020498743 -0.0011897167 -0.00017872523 0.0021092468 0.0013017077 0.0017642034 0.0015945891 -0.0017472797 -7.339916e-05 -0.0016249096 -0.0011965373 -0.00048672198 0.002213941 0.0016729347 -0.0021357539 0.001169069 0.0005961242 0.0022129007 0.0007918719 -0.0007175893 0.0017361143 0.0006998484 -0.0017655861 0.0013991487 -0.0012677937 -0.0003959944 -0.0023624816 -0.0006032267 -0.0014504615 0.0022410308 -0.0014234468 0.00034391484 0.000100892736 0.00045732968 -0.00091688836 -0.0014852324 -0.00070975896 0.0002325282 0.0008212854 -0.00061410933 -0.0012449777 -0.0006239804 -0.00083226466 -0.002027416 0.0008766346 -0.0011516425 -0.0010416242 0.00165255 0.0023236494 0.00061955396 0.0024931757 -0.00037170132 -0.00028882083 0.0017915713 -0.00092813256 1.1289958e-05 0.00096932496 -0.00181811 0.00019600871 -0.00091533514 -0.00040223915 0.0009424838 0.0009077813 2.9207673e-05 0.0017535719 0.0020131604 0.00239741 0.00090179825 0.0007877848 0.0010190296 -0.0024872655 -0.0020453143 0.0017788173 0.00031331857 -0.0019276866 0.0019053747 -0.0020055573 -0.00042803073 -0.0005014292 0.0012230622 -0.0018248128 -0.0015328156 -0.00036884286 0.0022212435 -0.0020965904 -0.0020625435 -0.0009896746 -0.0014556324 -0.00045780628 0.0011789354 -0.0010158139 0.0018884125 -0.00060165045 -0.0006663373 -0.0024459048 0.0006974011 -0.0018183684 0.0008624359 0.00031775353 0.001652136 -0.0016514747 -0.00041268487 0.0008831634 -0.0016461455 -0.001776475 -0.0009910467 0.0004148928 0.0011714562 -0.0015064176 0.00087550096 -6.9045927e-06 -0.0013501566 0.0019227201 0.0024028812 -0.0020405801 -0.00059322093 -0.00021972205 -0.0007320306 0.00014331308 0.0012046557 0.001040892 -0.0010802024 -0.0016873747 -0.0022138243 -0.0009971624 0.001512133 0.001985827 0.002312053 0.00041727698 -0.0016281137 0.0002180906 -0.0023313134 -0.0019530427 0.00010927231 -0.000887478 0.0021827351 0.0021923007 -0.0002860662 -0.0019138523 -0.00037923758 -0.0020921442 0.0024390602 -0.00018564612 -0.0014056757 -0.0018173888 -0.0017334527
15 0.0021266858 0.0023403582 -0.0020347033 0.00079217367 -0.0015488516 0.0020866734 -0.00081547373 0.0019586398 -0.002428033 0.0012760926 -0.0024894306 -0.0005013868 0.00079871947 -0.00079834554 -0.0017135402 0.002365197 -0.0007170454 -0.0018800618 -0.0007829309 0.0014678915 0.00058882264 -0.0016672646 -0.00014231214 -0.0011985534 -0.0019743552 0.002077776 0.00041597197 0.0017110915 -0.0015853053 -0.0021634297 -0.0009994152 -0.00080342207 -0.00032365136 0.0023727124 0.00080025615 -0.0024791376 0.00034923665 -0.0014086654 0.0021092952 -0.002244202 -0.0010543441 0.0015448732 -0.0017376393 -0.0006544206 4.3736305e-05 0.0014043427 0.00066269306 -0.0006444311 -0.0018031206 0.0010037147 -0.0012595406 0.00072056055 0.0020137024 0.0011682524 0.0008651784 0.002450786 -0.0015338421 0.00068323524 0.0012267644 0.0014686356 -0.0022045653 0.0014703036 -0.0013790232 0.0013645717 -0.00019819918 -0.00059645565 0.0004692888 -0.0001160698 -0.0024290367 -0.00015461561 -0.00050531 -0.000128743 0.0016697878 0.00091802 -0.0018018568 -0.0024032795 -0.00040181517 7.448788e-05 0.0006925382 -0.0014555693 0.00048936903 -0.0007307121 -0.0019489139 0.0021138494 -1.6374514e-05 0.0024764496 0.00039975997 -0.00054322626 0.000121339224 9.1698486e-05 4.622666e-05 -0.0017818129 0.0015077405 -0.0018293392 -0.0012066578 0.00019723573 -0.0003497526 0.00086482964 -0.00095180713 0.0016051261 0.0012422216 0.0016201711 0.00037553045 0.00046974188 -0.00061196054 0.0018816385 -0.0008465743 0.0021505724 0.0008971223 -0.0020025303 -0.0024245402 -5.9620943e-05 -0.0007281747 0.0023813695 -0.0010356009 -0.0003407502 0.0016179294 0.001988812 -0.00191645 -0.0024706393 -4.7058566e-05 0.0010743809 -0.0021958621 -0.0005672133 0.00031735888 -1.5720027e-05 0.0007188367 0.0001685489 -0.0024635557 -0.0017783665 0.0017628181 0.00011220644 -0.0023670148 -0.0009068558 0.0019210926 0.002276944 -0.002096618 -0.00092163833 -0.00072411087 4.6346104e-05 0.0019525387 -0.0018858803 -0.0016906008 -0.0021875163 -0.0020248967 -0.0008597687 0.0010145202 0.0024740142 0.0022351425 -0.0020783271 -0.001163386 -0.00056364236 -0.000100377714 0.0019493047 0.0021547182 -0.0009553996 -0.001854125 0.0015454837 -0.00019277632 -0.002415352 -0.00024380884 0.001852747 -0.0009433734 0.00111591 -0.0012551569 -0.00013335655 -0.000601502 -0.0014694073 -0.0009265831 0.0023049167 -0.001995813 0.00045086 0.00210843 0.0010534781 -0.00088905776 -0.000619452 -0.0020665769 -0.0020507174 0.0018963106 0.0023887567 -0.0022597068 -0.0011045116 0.0023571034 -7.336703e-05 0.00021281815 -0.0022677556 -0.001748875 0.000986604 0.0024942071 0.0015230281 -0.0020642495 -0.0018804484 0.0012545171 -0.00036578276 -0.0012401643 -0.0008611559 0.0007750073 -0.0018052706 0.0022550295 0.0006387532
16 -0.0024942716 0.0023574107 -0.002347118 0.0012440484 0.0008525518 0.0015774602 -0.0015846344 0.0021667327 -0.0010389793 -0.0022238423 -0.002367134 -0.00010192464 -0.0004900999 0.00067540724 0.0009321738 0.001965085 0.0016729659 0.0016084705 0.00046429574 0.0016634353 0.0020123306 -0.0010158888 0.0018593599 0.0011038219 -0.0011644008 0.0010571105 -0.0021720137 0.0005366714 -0.0005033028 -0.0018072635 -0.0019722478 -0.00046270783 0.0024282918 0.0007834805 0.00062828953 -0.0002286965 0.0024787993 0.0021870444 -0.0019163706 -0.0024899682 -0.002180472 -6.159535e-05 0.0006901503 0.0021467684 0.0020980597 -0.0024957543 -0.0005710685 -0.00011704769 -0.00034238305 -0.0017296888 -0.001037547 0.001882114 0.00043620635 0.0009171439 0.0010247235 -0.001337628 0.0020032646 0.0017418792 -0.0014530187 0.00047989492 0.0010811167 -0.0017057087 -0.0022228565 -0.0006694463 -0.00031885505 -0.0009239968 0.0007116315 -0.0013185564 0.0022491599 -0.0021832776 0.00019266806 -0.0008111667 -0.0013384807 -0.0020155387 0.0005117017 0.0005142633 0.00082270266 -0.00034440728 -0.0010712957 -0.0020987939 0.00029544765 -0.0005032695 0.0005147243 0.0016324194 0.0012904962 -0.0015796598 -0.0015526175 0.0010133858 0.0003353227 0.0013134228 -0.00017518224 -0.0012393921 -0.0021198923 0.0004611218 -0.0023487525 0.00046891393 0.0008791187 -0.0008200529 0.002199029 0.0005691529 0.00073751365 -5.4438133e-05 0.00033940258 0.0021083541 0.001189149 -0.0017754436 -0.0005629575 -0.0021386447 -0.0022902233 -0.0012608212 0.000686995 -0.0021317387 0.0011776539 -0.0011142588 -0.0012655276 -0.0008033562 -0.0024424577 0.00033003767 -0.0010193324 0.00036065094 -0.0020795146 -0.0006664711 -0.0008576757 -0.0016647637 0.0024494282 -0.0018917006 -0.0018574118 7.240125e-05 0.0003988957 -0.000331403 -0.0009779661 0.00017649028 -0.0022559266 -0.0024465115 0.0017760894 -0.0023223034 0.0005657249 -0.00019861897 -0.0011764541 0.0016349973 -0.0020494594 -0.0017227175 0.0016695983 -0.0013941177 0.002369369 0.0009880627 0.0015475797 -0.002269401 -0.0020108586 -0.00016894261 0.0020710654 0.0004921255 -0.001030935 -0.00062493444 0.0006864902 0.0007997807 0.0018295059 -0.00037218235 -0.0019026834 -0.0019908326 0.0023660092 -0.0005235984 -0.0012379339 -0.0024888774 -0.0011885365 0.0018526325 -0.0011291322 -0.0015475038 0.0006992582 -0.00081184565 0.0015804926 -0.001331444 0.0018068049 0.00082206377 -0.0007112932 0.0007417919 0.001771485 0.0015152856 -0.0022902447 0.00054874294 0.001956041 0.00055875746 -0.00025782012 -0.0008715624 -0.0016539225 -0.0006024423 -0.0019681887 0.00043046987 0.0015161843 2.0599924e-05 -0.0023812386 -0.0005581477 0.0012564051 0.000520003 -0.002259421 0.0014146832 -0.00084614963 -0.0022589709 -0.0016082969 0.0002213507
17 0.0024331948 -0.0019787552 0.0012591465 0.00015412713 -0.0020524138 0.0012882012 0.0003490101 -4.9872324e-06 0.00023761834 0.0018229885 0.0012761119 -0.00083354616 0.002360538 0.0011351674 0.0010547047 -0.0015176048 0.00028402987 0.00090914476 -0.0004761226 -0.002122439 -0.0003894358 -0.0024137911 0.00058750925 0.0021569543 -0.00036554155 0.00058364845 -0.002438588 0.0024933787 -0.0016557958 -0.0012313831 0.0015067379 0.001411364 -0.00062628265 0.002402436 0.001556654 -0.00016342197 0.0023957728 0.0006243312 -0.0019490635 0.0009531155 0.001142547 -0.00021562818 0.0007160129 -0.0014842531 0.00084243855 0.0018165931 0.0013319177 -0.0024239924 -0.001097388 0.0018158681 0.001430369 -0.0021497705 0.00084919157 -0.0006919679 -0.0024373885 -0.0018395646 0.00010830257 0.0016223215 -0.00027289055 0.00047933822 -0.0008600316 0.0018915618 0.0014873855 0.00023022713 0.0019439938 -0.0016056842 0.0020197923 -0.00054836716 0.001907926 -6.309454e-05 -0.00059960154 0.0005423352 0.0009407406 -0.0016318664 0.00014706468 -0.002157386 0.0011587837 0.00042820186 -0.00084920647 -0.00082723144 0.0013841507 -0.0021511635 -0.0014556878 0.0013068791 0.00022194837 -0.00083488703 -0.0005927512 0.0012608268 0.0004441538 -0.0007811949 -0.0011062204 0.0003273266 0.0013655263 -0.0016226467 -0.0023573001 0.0017407374 -0.0018173378 -0.0016586777 -0.0010018095 6.554881e-05 -0.00022920757 -0.00160355 0.0008755021 0.0018719924 -0.001775699 1.276168e-05 -0.002238164 -0.0012844702 0.0022266065 0.0014775973 0.00045533897 0.0017219717 0.0022288836 -0.0010668578 0.0024195313 -0.002067399 0.0008973065 0.0017538718 -0.00097541744 0.0023057722 0.0023928056 -0.00016016187 -0.0015484059 0.0018694713 0.00050899736 0.001811651 0.0016937773 -0.0021126461 0.00051879906 0.001591811 -0.00027571083 -0.0020689275 -0.0013151807 0.0018236414 0.0024310756 -0.0012978762 -0.0019077673 0.0024270737 -0.002030624 0.00032742135 -0.0020948818 -0.00040482287 -0.0023917998 -0.0008220121 -0.0014716038 0.0009972837 -0.0006020946 0.0015608976 -0.00083026104 -0.000839349 -0.0018728852 0.00069973106 0.0024267123 -0.0019808158 0.00092914794 -0.0010254842 -0.0005112202 -0.00063491974 0.00031206314 0.0016234531 0.0022379379 -0.0023360138 -0.0016450924 0.00097123394 -0.00044840155 -0.0014483967 0.001159352 0.0012485276 -0.000575689 -0.0005741867 0.00063124625 0.0023003211 -0.0019754535 0.001647851 -0.0001706176 -0.00016741734 -0.002336648 0.0022271494 -0.0014384341 0.0016575907 2.7149217e-05 0.0018412555 0.0004913297 0.00053249183 -0.0017184174 0.0010182883 -2.0596897e-05 -0.0017514172 0.0015771128 -0.0006548667 0.0017625345 0.0022084806 -0.0008976483 0.0006217989 -0.00020707725 -0.0020558017 -0.0024618395 0.0021781875 -0.0023481606 -0.0005200044
18 0.0012096029 0.0016526617 -0.0014012607 -0.00085283513 0.0018022303 -0.00034504454 -0.0003254048 0.00017511961 -0.0022890489 0.0006753104 0.00086540333 0.0021172035 -0.0012178349 -0.0007676417 -0.0020768014 -0.0016400823 0.0009621149 -0.0020585912 0.0021456843 0.00035340036 0.00091442117 -0.0012422821 -0.0021085388 -0.00026492425 0.0005719282 0.00078567676 -0.00090238836 0.002319539 -0.00011112401 -0.00041785347 0.0019451557 -0.001544991 0.0002593412 0.0003482271 0.0022143913 0.0018388554 0.0017040395 0.0007249238 0.002115592 0.0013657196 -0.001570498 -0.0016950982 -0.0007328987 0.0004899504 -0.0006486288 0.0008802563 0.0015175422 0.0015308857 -0.0001316648 0.00012086681 0.0016048388 0.0022392673 -2.4456065e-05 -0.0015283087 -0.001997951 0.00093413354 -0.0024696025 0.00097295316 -0.002161327 0.0011482858 0.00017784536 0.0020588632 -0.0014125344 -0.0012879034 0.0021598656 0.002022415 -0.0010823321 -0.0014691057 -0.0013467732 -0.00079872995 -0.0010421356 0.0012670839 0.0009151206 -0.0001784598 -0.0006984469 0.001050117 -0.0011614105 0.0016963244 -0.0023762211 0.001078319 0.001002244 0.0022547324 0.0014384766 0.00074528065 -0.00018107425 0.0012612578 -0.0020942208 -0.0019947228 -0.0014872014 0.0024894048 0.0009483958 0.0013625147 0.0012983086 0.0017853994 -0.0008284858 0.0013112542 -0.0010496199 -0.00067288696 0.0012291456 0.0014696722 -0.0011498344 -0.00091437215 0.0006958095 0.0013438428 0.0017266185 0.0013599843 -0.0018120259 0.0007074021 -0.00089449587 0.0021210816 0.000989055 0.00058145216 0.0004807585 0.0021042968 -0.00012496323 0.0021117195 -0.00049816724 0.0016882648 -0.0020428214 0.0007255154 -0.00026966538 -9.951135e-05 -0.0006665817 -0.002137137 0.001611507 -0.0011924272 -0.00222563 0.0017163376 0.0021378002 3.1053787e-05 0.0008387973 -0.0002763993 -0.0014818966 -0.0018175258 -0.0009882622 0.0020746933 -0.0016657021 0.0023269937 0.00020599063 -0.00016896613 -0.0014145589 -0.0013397976 -0.0012153584 -0.0022325057 -0.0024093431 0.0012008965 0.001982708 0.00047533237 0.00010876474 -0.0005608996 -0.0005632293 -0.00066403183 0.0018867236 0.00179013 -0.002468584 -0.0023863083 -0.00090386625 -0.0021874872 0.0018033613 -0.0021979643 -0.002402624 -0.0008869439 0.0022876398 -0.0011006924 -0.0017949836 -0.00054348074 0.002015022 0.0007677227 -0.0018216339 -0.00054716377 -0.0017784759 -0.0023023016 -0.0010702834 -0.00070936466 -0.0014833119 0.000515827 -7.3579606e-05 -0.00014113821 -0.0013983267 0.0016489262 -3.205589e-05 -0.00075698795 -0.0019471038 -0.0010381729 0.0013659874 0.0016669831 0.002106232 -0.0013703769 0.0010876413 0.0024926555 -0.00043737912 0.00044769305 0.00054679136 -0.0015448474 0.00037055067 0.001753082 -0.00061620714 -0.001366383 0.0019863942 -0.0004717207
19 2.9576477e-05 -0.0007886449 0.0015447722 -0.0015716559 -0.0012808532 -0.00038760132 -0.0018575776 -0.000984714 -0.001099636 0.0008068129 -0.0013300985 -0.0009614602 0.001848639 -0.0012375757 -0.0013984236 0.00027719163 -0.0023059754 0.00081557664 -0.0004691712 -0.0018635828 6.590434e-05 -0.0016811595 -0.00031922525 0.00013142754 -0.0021964307 0.0012898003 -0.0016595265 7.7789184e-05 -0.00084067695 0.0021304623 0.0014391174 0.0005392509 0.0020352448 0.001367717 -0.0013768052 0.0016771946 0.00031283568 -0.0020228918 0.0006850576 0.0019244431 0.0013864439 -0.0014053711 -0.0014025623 -0.00016032788 -0.0018871843 -0.00057577284 3.407919e-05 -0.0012094304 0.0016749436 0.0021646875 -0.002320446 -0.0021754333 -0.0005313796 -0.00017840602 -0.00041439245 -0.0024451925 -0.0012189588 0.0014974484 0.0017845118 -0.00082518044 0.00062495074 0.0018446366 0.0024409005 6.110431e-05 0.0021092487 0.00039052428 -0.0020761548 0.0011357148 -0.00074088667 -0.00069705036 0.0020687152 -0.0024685785 0.0023098486 0.001849805 0.001351557 -0.0009487367 0.00083940173 -0.00037589064 -0.001413221 -0.0014501938 0.00035805698 0.0017726673 -0.0021914337 0.000849067 6.07986e-05 -0.0019851958 -0.0023362827 -0.000621354 -0.00012900401 0.00020736852 -0.0016285758 0.001015757 -1.6903272e-05 -0.001276043 0.0007991593 0.0017410396 0.0024738656 -0.0017684575 0.0017579622 0.0004954196 0.00019631232 0.00016959338 0.0005711082 0.0005557779 0.0021367157 0.00043471274 0.0007772425 0.00012174994 -0.0021130526 -0.0011979371 0.00057797437 0.00034941197 -0.0021056163 -3.2885e-05 0.0018672827 0.0017279144 -0.0013086316 -0.00011428213 0.0009020383 -0.00084766233 -0.0024163937 -0.0024954453 0.0023709424 0.00094675575 0.0011336124 0.00047748443 0.00066784234 -0.0018760702 -0.00018860213 0.0010690901 0.0011487065 0.0017138771 -2.254406e-05 0.0014548609 -0.0013293707 -0.0014121002 -0.0012402621 -0.0017201782 0.00027573132 -0.0024517472 0.0024909615 -0.0012524271 0.0008117773 -0.0020254394 0.0022511627 0.0013816454 -0.00091868255 -0.0013490346 -0.00042781676 -0.0007331219 0.0008393633 0.00038890308 0.001128586 1.7833197e-05 0.0011561813 -0.0011732125 0.00027285982 -0.0013094714 0.0014994442 0.0020151478 0.0011522407 -0.0021645506 -0.0014906809 -0.00081803463 8.4948726e-05 -0.0015520351 -0.0018139445 0.0019121068 0.0013721436 0.0019450514 0.0010987828 -0.0017189017 -0.0010138756 0.0006594858 0.0014025837 -0.00076110417 -0.0009803638 0.0012964087 -0.0021403073 -0.0016195693 0.0021448913 0.00037955143 -0.0014881417 0.00032222457 -0.00086591835 -0.0024766703 0.0012004848 -0.0014775296 0.00064998656 -9.818515e-05 0.0005125231 0.001529857 -0.001326543 0.0020421478 -0.001744811 -0.0009864804 0.002420749 -0.00042116852 0.0014676102 -0.002109429
20 0.0012018052 0.0003173924 4.4223852e-05 0.0008504414 -0.0018646213 -0.00019896775 0.00025802432 0.00072093937 -0.0021415423 -0.0019052597 0.0011433004 0.0010562297 -0.00010986091 0.0017682035 0.0018134261 0.0015002307 -0.0008579609 0.00055291713 0.00049035717 0.00014218781 -0.0018030363 0.00078525185 0.00024332083 -0.0022184625 0.0008391577 -0.0006968215 0.000762512 -0.00035771425 -3.461074e-05 0.0012468849 0.0009536308 0.0023503192 -0.0020928942 -3.2543205e-05 0.00089489645 -0.0020572983 0.0018734462 0.00031586946 -0.0014172473 -0.001585885 -0.00023051142 0.0023991028 4.5537716e-05 -0.002472271 -0.0024106514 0.0008285709 0.0019044382 0.00073115225 0.001538537 0.0015215212 0.0015399912 -0.0020973086 -0.0010804519 0.00065387646 0.00022543129 0.0003059078 0.0005188645 -0.0008929628 0.001717756 0.0012510945 -0.00026943441 -0.0005872741 -0.0019219762 0.00082625006 0.00060115545 0.0020711324 0.0020322944 0.0009127334 -0.0004734851 0.00044473377 -0.0024065187 0.0006481295 -0.002235946 0.0017423392 -0.001302436 0.00084199756 0.0008338338 -0.0013056078 0.0011468087 0.0017953804 -0.0024625696 0.0006524259 0.0007784178 -0.0010135632 -0.0021423756 -0.0022671 0.001052886 -0.00038489723 0.0012738656 0.0021685935 0.00029898342 0.001309912 0.0007665646 -0.00073686603 0.0019519092 -0.00088313664 -0.0022124096 0.002061769 0.0012998178 -0.00020633335 0.0019536102 0.0016101296 -0.00024734624 -0.001730572 0.0017890274 -8.315197e-05 0.0007076701 0.0019327933 0.0019686236 0.0005200221 -0.0011490003 -0.0008188775 -0.0008389568 0.0010030677 -0.0010609961 0.0022571064 0.0021420894 0.0012167906 -7.549231e-05 -0.0015318843 -0.00037885248 -0.00031207968 -0.0018588933 -0.0016052285 0.0003539757 0.00018933741 -0.0016272985 0.0024647843 -0.0006944147 -0.0010854995 0.002274233 -0.00041833776 -0.00010749814 -0.0011585122 0.0013847118 0.0019690017 0.0019924818 0.000454786 -0.0021834173 0.0005469071 -0.0016846957 -0.0006455848 -5.9062848e-05 -0.0018022135 0.000524692 0.0010451141 -0.0005019028 -0.002490583 0.0008205378 0.0019942285 0.00076626264 -0.0012829929 -0.0012720703 -0.0017032537 -0.00033944496 0.0017836704 0.00073778955 -0.0021828352 -0.0005533231 -0.0006117517 -0.00051381835 0.0019955477 -0.00054390216 -0.002101989 -3.4482684e-05 0.0024503698 0.0005412975 -0.00016140053 -0.0005301698 -6.362563e-05 0.0010224872 0.0010742231 -0.0008661959 -0.00040499866 -0.00094105327 0.0003519412 5.2168733e-05 -0.0012131926 -0.0022089356 -0.0004238959 -0.0013196829 0.001984694 0.00069961697 0.0007343169 0.00012688944 0.001460128 0.0008770472 0.00068005524 0.0023155673 0.0007734429 -0.0023713394 -0.0022729596 -0.002371156 -0.0021186178 -0.002041836 -1.831539e-05 -0.0012162473 -0.00020485977 0.00059910584 0.0023937225
21 -0.00069802674 -0.001048724 -0.0016328832 -0.000754045 -0.0005187886 0.00041742832 0.0013981578 0.0003797412 0.002392245 0.0019069761 0.0019802013 0.0010280404 -0.0009981453 0.00023452588 0.0016799611 0.00072043855 -0.001648342 -0.0016221728 -0.0023423722 4.4120476e-05 0.0017716 -0.0019000086 0.00062019355 -0.0018392494 0.00019085873 -0.0023296692 5.5701705e-05 0.0004121724 0.00020290259 -0.0020783513 -0.0019755652 0.0008569977 0.0015169983 0.0006649513 -0.0021005985 0.000681374 0.0010871238 -0.00010210206 0.001306002 0.0016438616 0.0004852917 0.0011749079 -0.00086868845 0.0016256133 -0.0024575493 0.0015108949 -0.0003875494 0.0003859878 0.0017680619 -0.0009158569 -0.000509972 -0.0024119297 -0.002302596 -0.0002763148 3.4178607e-05 -0.0010498663 -7.087411e-05 0.001624342 0.0011435717 -0.00034971465 -0.0023607218 -0.0024888807 -0.0016048402 0.0022957562 -0.0012698636 0.0013554608 -0.0017849192 -0.0011727863 9.695301e-06 0.0013857109 0.00031496934 0.00031368528 -0.0018175336 0.0012126653 -0.0020709026 -0.000613712 0.0010763288 0.0011807906 0.00013347622 0.0024068234 0.0014718436 0.0024341554 0.0009299894 -0.00014618062 0.0005868203 -0.00014124485 -0.0018657881 -0.0016510993 0.0014460622 -0.00030953134 -0.0002502005 0.00039542047 0.00028545433 0.0004647004 0.0023779375 1.2877397e-05 -0.0020997613 0.0015324494 0.0018120524 -0.0014845987 -0.0020974942 -0.0020823532 0.0001762351 -0.0009474483 -0.0012553025 0.0022147405 0.001817279 0.0006312763 0.00012103445 2.2531487e-05 0.00033013825 0.00124343 0.00033439696 0.0023942227 -0.0013960653 0.000513603 0.0012306964 -0.0009415903 0.0019968175 0.0014252211 -2.535549e-05 0.001867732 0.00095733907 -0.00244097 0.0020483555 -0.0013681828 -0.0015662643 -0.0013868784 0.0014377688 0.0010829035 -2.3980392e-05 0.00014870055 -0.00031860475 -0.0024105182 0.0009376616 0.0007710636 -0.0014174059 -0.0021030107 -0.0023835034 -0.00018489035 0.0017990298 -0.00081278826 -0.0009881213 0.0017237831 0.00041624368 -0.00023222947 0.0024081324 0.0007554465 -0.0023899027 0.0015948475 -0.0021626118 3.977632e-05 -0.0020789474 -0.0018453604 5.36663e-05 -0.00042597833 0.00048779137 -0.0012068814 -0.0022680226 0.0021523498 0.0020467057 -0.0015912717 0.0021383376 -0.0006372768 -0.0007026943 -0.00019620266 -0.001630522 0.0014871629 -0.00031205197 0.0011365863 0.001991436 0.00090358197 -0.0023193024 0.0017370628 -0.001966157 -0.00211528 0.0015438334 -0.00059813855 -0.0005129387 0.0005177874 0.0022602356 0.0023685936 -0.0004983137 -0.00071085535 -0.0005248452 -0.0016114833 0.0021317713 0.0006195614 0.001862695 0.0002083939 -0.0014866319 -0.0022516123 0.0004607821 -0.0024270287 0.0012820961 0.00068444456 0.0019000228 -0.0010569606 0.00047395262 -0.0017151514
22 -0.0011689499 -0.0011180863 -0.0018379262 0.0006253754 0.001920105 -0.00063489855 0.0022692666 0.001525681 0.0019927928 -5.995715e-05 0.0010588302 -0.0012901196 -0.0011991137 5.467236e-05 -0.00041345623 -0.001433553 -0.0018505328 -0.0021665723 -0.0023838675 0.0010379981 0.00042913225 0.001562003 -0.001188969 -0.00059990585 -0.002362737 -0.0016376886 0.0024590641 -0.00039412593 0.0018840968 0.00040893187 -0.001371417 -0.0012747046 0.0023555062 0.0023200787 -0.0013245574 -0.0017977254 -0.0011729663 -0.0024012604 -0.0012714905 0.002293347 0.0011644042 0.0006174913 -0.0006655961 0.00069977995 -0.0012001067 0.00035513868 -0.0019195552 0.00096299755 -0.0012004817 -0.0011414355 0.0015303562 -0.0020693163 -0.002052303 0.0011841967 0.001880561 0.00079583586 0.0016240771 0.0023203902 0.0015357658 0.0024912995 0.0021138526 -0.0012123918 0.0022212816 -0.0024294376 0.00052854954 0.0022904584 -3.201305e-05 -0.00010493118 -0.0004495585 0.0015621958 0.0024200887 -0.0013334024 -0.00212091 -0.0004089547 0.00036511826 -0.0013509326 0.0020917137 0.0017292919 0.0013539067 -0.0013260331 -0.0006838259 -0.0017973816 0.00090582436 0.0005304443 0.0008932953 -0.0018410543 0.00058272365 -0.0017364323 -0.0013787397 0.00017430237 0.00018734834 -0.0008940714 -0.0010260739 -0.0024542303 0.0013899526 -0.0018204045 -0.0016962903 0.0015383912 0.0023396793 -0.002176563 0.0019625034 0.0007631867 -0.00015291502 -0.00067681784 0.0007226425 0.0015484272 -0.00057917624 0.0021126852 0.0003868381 0.0014414331 0.0003751663 -0.0016191509 -0.00043964782 -0.0022383097 0.00065743155 0.0022110096 0.0022369348 -0.0014544582 0.0022148616 0.0003965306 0.001068684 -0.001779686 -0.0024073618 0.0018909867 0.0021259966 -0.00022040866 -0.0014626544 -0.0021637883 -0.0021806378 0.0024111597 -0.0016693696 -0.0023772018 0.00010532676 0.0022925804 -0.00026998436 0.0008617991 0.001507822 0.0005540191 -0.00022685644 -0.000393681 0.00073524355 0.0021097893 -0.0017943283 -0.0015879639 -0.0021555193 -0.0016046499 4.5083696e-05 0.0023853327 0.0018761605 -0.0015682727 0.0021172967 0.0020682048 0.00095427595 0.00053377636 8.5758045e-05 -0.00085455924 -0.0012010923 0.0011824532 -0.0004040075 0.0007082075 0.0010427926 -0.0013383946 -0.0013167354 0.00035761716 -0.0002920616 0.0012229204 -0.0022693959 -0.0012769222 -0.0018517512 -0.0004960238 0.0014212239 -5.346327e-05 0.0013591552 0.0024384 0.0007251594 0.0014827112 0.0014737402 -0.0018989071 0.0003482278 -0.0007877692 0.0011294365 0.0005529877 0.0012849476 -0.00089002284 -0.0009935271 0.00045889802 -0.001961025 0.0012298513 -0.001050739 0.0022973916 -0.0010658809 -0.0009080088 0.0019413931 -0.00017831149 -0.001363174 -0.0006501952 0.0009235614 0.0022584377 0.00084427185 -1.3057375e-05
23 -0.000823147 -0.0018561372 -0.0019391989 0.002056554 -0.0004701966 0.0021992936 0.00037206523 0.0017155097 -3.317441e-05 0.0011181328 0.0016513215 -0.0018323958 -0.0006445965 -0.0024283351 0.0009848208 0.0011038869 0.0018798788 -0.00021036086 -0.00070855196 -0.0009780648 0.0018234025 -0.0022973455 -0.00097039633 -0.00078891544 0.000834994 -0.0021409749 -0.0013643244 0.0016428051 -0.0018380212 -0.0010321542 0.0006424659 0.0014143689 -0.0015011376 0.0023062108 -0.00040847412 0.001061921 0.0005707699 -0.00200322 0.0015310002 0.0018264921 -0.0011789894 -0.0012527433 -0.0019132188 0.001413744 0.0009296248 -0.0019563788 -0.0020248606 -0.00079214456 -0.0010620713 0.0022221543 0.0022535627 -0.0021256336 0.0005050327 -0.0012448916 -0.0017780601 0.0021820515 0.0008861176 0.0014070375 -0.0015329092 0.0012012701 0.0015652166 -0.0012313774 0.0012823942 0.002350085 0.0022698268 -0.0017695324 0.00055020023 0.0010320928 -0.00016480288 -0.0011060855 0.0015959283 0.001376482 -0.0011942971 0.00041108578 0.0011338328 0.00066009373 0.0006308772 0.0012345 -0.0013623568 0.00047359266 0.001705301 -0.0013963357 0.0017379778 0.0018982519 -0.0017498233 -0.0012406384 0.00044347323 0.00061370013 0.0016666986 0.002186797 -0.0023720444 -0.0024866974 0.001715071 0.00047963765 -0.0005855077 -0.0005029633 0.0016751597 -0.0005584491 0.0021876474 -0.000777534 0.0015346617 -0.0024150803 -0.0015217582 -0.0022357493 0.0022648545 -0.0023165646 -0.0019751545 0.0017988789 0.0008536156 0.0010922393 -0.0020172093 0.0024457541 0.00019025127 0.0012610066 0.0001234645 0.0014783284 -0.00010165898 -0.00016106642 -0.0005243984 -0.001526824 -0.0013755249 -0.0022672184 0.00039214035 0.0023527918 -0.0011921796 -0.0012113901 -0.0015633493 0.0012537681 -0.0002971429 0.0014420743 -4.2549334e-05 -0.0009722188 0.001963987 5.1376177e-05 -0.0019408145 -0.0019075572 0.0002886667 -0.00047539803 0.0017115003 -0.0020698174 0.00098738 0.0011070531 0.0020504193 -0.00081750925 -0.00014406326 -7.736869e-05 -0.0014316475 0.0021277238 0.002437111 0.0015300233 0.0021154718 0.0022335378 0.00035277475 -0.0006076831 -0.0020271668 -0.0003172364 -0.0015252929 0.00012330944 0.0017891801 -0.0023786845 8.262019e-05 0.00037485827 -0.0017641997 0.0014157924 0.0020234203 -0.00091364654 0.0010027131 0.0016529881 6.691227e-05 0.0013273638 0.0017270464 -0.0019490027 -0.0011516073 -0.0016670164 -0.00083138375 0.001248661 0.0018086056 -0.001829433 0.0016736635 -0.0022673996 -0.001311903 -0.0022786367 -0.0017806086 -3.8648956e-05 -0.0024691722 -0.0019880142 0.0013325985 -0.0022617371 -0.002037864 0.0006041459 0.0017514322 0.0014467705 0.0022803913 0.0002167765 -0.0024508885 -0.0016357452 -0.0010721067 0.0008206377 -0.0005769393 -0.0014328241
24 0.0015330613 0.00058138254 0.00041662878 0.0019331486 0.0019213492 0.0013396647 -0.00062370324 0.0007229075 -0.0020525488 -0.0017139893 0.0022202735 0.0016602948 -0.0011340976 0.00020686141 0.0023098532 0.0017786981 9.459653e-05 -0.0016294345 0.0002617871 -0.0021618875 0.0022590347 0.0012962709 0.0024725115 -0.0021917303 -0.00048586982 -0.0011133573 -0.0022241261 0.0012222454 -0.0007649469 -0.0022266645 0.00035312749 4.2482512e-05 0.0020933724 0.00044050743 0.0018929713 -0.0022832325 -0.00044060266 0.0022293008 -0.0013459369 0.0022434471 0.00081382296 0.00060739135 0.002443328 -0.0013035381 -0.0016310175 -0.00041324366 -0.0013574322 -0.0007055127 0.00014427118 0.0011563262 1.5611295e-05 -0.0019281947 0.0015977151 -0.002250314 -0.002479634 0.0024816282 0.0015359372 -0.0023139853 0.001190538 0.00052375 0.001871082 -0.0016829272 -0.0010997363 -0.0017969564 0.0011769757 0.0020639957 -0.0022708573 -0.000169568 -0.0007547742 0.0018741284 -0.0021283976 -0.00025882712 0.0024500364 0.0019781003 -0.0015333557 -0.0024369555 -0.0010167158 -0.0022764218 -0.0012152931 -0.0021755334 -0.0021577403 0.0021006567 -0.0023289686 -0.0017127004 -0.0016113413 0.0012331274 0.0014867163 -0.0014195278 0.00092479284 -0.0011590939 0.00018450338 -0.0023689282 0.00047471514 -0.0018302428 -0.0008270958 -0.0003263324 0.00093959086 0.0019700537 -0.0012311133 -0.0014041614 0.00026039593 -5.999324e-05 0.0014852537 -0.0013255697 -0.00017675152 -0.0009154272 1.8569175e-05 -0.0019801161 0.0022869348 -0.0023435305 0.0024231588 0.0011376867 0.0021295943 0.0021112273 -0.0014089608 -0.0018724501 0.0006610835 0.0021588532 -0.0002586781 0.0006034926 0.0019695172 0.00093396776 -0.00041087088 -0.00067782495 0.0010556711 -0.0014227873 -0.00051535666 -0.0014064935 -0.000922584 0.0006667557 0.0014967681 0.0006962933 4.053139e-05 0.001678512 -0.0014216849 -0.0022277879 0.0013104626 -0.0022051726 0.0012097189 -0.0015168434 0.0013436473 -0.00051788497 -0.001175847 0.001080458 0.0022294982 0.00075558457 0.001172381 -0.002407422 0.0015909164 0.0024214908 0.0009876287 -0.0020477776 -0.001961407 -0.0014995169 -0.0016200352 0.0008533972 0.00078010326 -0.0008597857 -0.0018558889 0.0001666951 0.0014915401 -0.000355046 -0.0011298987 0.0013026458 -0.002439401 0.0015644301 2.3412518e-05 -0.0015901891 -0.00026103575 0.0011488092 0.0024843705 0.0013276539 0.00024664472 -0.0003061234 0.0024189642 -0.0019351059 0.0003982992 0.0024890066 0.0013372619 -0.002027016 0.0012063647 0.00039695948 0.00019973912 -0.002436019 9.449106e-05 -0.0016425124 -0.0016888285 0.0022250004 -0.0019613844 0.0023947083 0.0011351069 0.0007856162 -0.0017130121 0.001118252 1.8223189e-05 -0.0005895301 -0.0019059468 0.0009260515 -0.0010419887 -0.0011269865
25 0.0009108337 1.3627112e-05 -0.00080865715 -0.0021348442 0.00081297266 0.0013023287 0.0024556504 -0.001713731 0.0009258967 0.000410605 0.00016234885 0.001376238 -0.000264348 0.00084529934 0.00026594405 0.0015009721 -0.00087143807 0.00040591392 -0.00025984133 0.001489345 -0.00111976 -0.0017493546 0.0012471995 -0.0018671732 0.00034710346 0.0008561944 0.0012560766 0.0013518343 -0.0018166828 -0.0011492341 0.0014866078 -0.0008108318 -0.0012516975 -0.0024786403 0.0013218899 -0.000829463 -0.0020823036 0.0014455998 -0.0017037343 -0.0024793898 -0.0007820334 0.0021956475 -0.001973732 -0.0008472949 0.000940508 -0.0010735592 -3.2738317e-06 -0.001828958 -0.0012725859 0.00064939656 0.0020592664 -0.0014414558 -0.002395644 -0.000267728 -0.0005656844 0.0017596274 -0.00028776284 -0.0014187491 -0.00026819948 0.00088484073 -0.00042596227 0.0015768087 0.0023788912 0.0013489674 -0.0007486468 -0.0022660645 -0.0013167509 -0.00019078376 -0.000299491 -0.0023566615 0.0018446329 -0.0023861597 -0.0020403066 -0.0017335524 0.0006131104 0.0021540644 0.0003457854 -0.0022141882 -4.5702793e-05 -0.0003343958 -0.001630597 -0.000993762 -0.0022368042 -0.00094812573 -0.0016974371 0.0019403608 0.0010001562 0.0003088424 0.0023733834 -0.00087309093 0.001574921 0.0015050159 -0.001159445 -0.00019220356 -0.0016925803 -0.0014589735 -0.0016399187 -0.002497422 0.0021884753 -0.0014713525 0.0016184011 -0.00091715844 -0.002468563 -0.0016032326 3.3273827e-06 -0.001262683 0.00041208067 0.0023679407 0.0009768766 0.00020816457 -0.0020592886 -0.00093019987 -0.00022887555 -0.0009790472 0.0020206128 0.00028803525 -0.0007384693 -0.0022764816 0.0005003605 0.00025072135 -0.0014968797 0.00066619087 -0.0023003565 -0.001078361 0.0024532052 -0.0010058135 -0.0012048947 6.444403e-05 0.0010764902 -0.0022251536 -0.0007502263 9.3202805e-05 -0.0022454727 0.0014003271 -0.0017472168 0.0022629658 -0.0013968446 0.0021567456 0.0013158298 0.00070304726 -0.0011415231 0.0009471481 -0.00022083591 0.002369997 0.002492915 -0.0023705708 -0.0016694411 -0.0011324078 0.0018047928 -0.0015741789 -0.002127075 -0.0011609712 -9.163027e-05 0.0003546956 -0.00017709914 -0.00015905639 -0.00018998887 0.00036507845 -0.0003391218 0.0016572676 -0.00039861025 -0.0019351691 -0.001603907 -0.0017419588 0.0019538822 -0.0017227395 -0.0010882154 0.002466673 -0.0016490435 0.00066159666 -0.0022434434 -0.00069298805 0.00038602436 0.00049496535 -0.0016811946 0.0015646033 0.00174245 -0.00085499464 0.0024882127 -0.0009648674 -0.0009932843 0.0021973103 0.00033861934 0.00080352 -0.0012884855 -0.00014794292 0.001677142 0.0020123445 -0.0007797396 -0.00051019154 2.1535205e-05 0.0017179884 0.0013250585 -0.0014511299 -0.0015538584 -0.0012972871 0.00109801 0.0023653214 0.0019087847 -0.0024960022
26 0.0006409334 -0.0007723123 -0.0022484448 0.00023410027 -0.002289238 -0.002161737 -0.0007126209 0.0015307493 -0.001994259 0.0024666335 0.00025919802 0.002454115 -0.0019355707 -0.00033959234 -0.0004180607 -0.0014157494 -0.0016845712 4.3046195e-05 0.00078559434 0.001385821 0.0007886174 -0.0006744015 0.0017353473 -0.0012986332 -0.002227761 -0.001259296 -0.0024321612 -0.00053631514 -0.0010796848 -0.0021281457 -0.0002380074 -0.0006776997 -0.0017264516 -0.0019140684 0.0009404649 -2.9313844e-05 -0.00076536415 0.00067991065 0.0010579121 0.0015568067 0.0015833741 0.000943776 -0.00083527504 -4.7251815e-05 0.00073584216 -0.00011199061 0.0010145623 0.0008829606 -0.0015138569 -0.00244277 0.0011598596 0.0010416873 0.0018366836 -0.00096144225 -0.0020413795 0.002389981 0.001790822 0.00049643125 0.0006209281 -0.00023554335 -0.00094365445 0.0022895653 0.00047168764 0.0012009237 -0.0002927396 -0.0023402341 -0.000770655 0.0008021884 -0.0010815397 -0.0012646785 -0.0007670176 0.0013466373 -0.0018178376 0.00020155124 -0.0015284207 0.0001673915 0.0007717607 -8.0924015e-05 -0.00029780087 5.3521944e-05 0.00054773246 -0.0019039529 -0.0016768607 -0.0012485196 0.0013374861 -0.002019413 0.0007451868 0.0013865379 0.0004214861 0.00011932035 0.0006728037 0.0017570788 6.2556937e-06 -0.0019882522 0.0013891223 -0.0011461827 -0.0016730013 -0.0005099985 0.001155073 0.0015716846 0.002052621 0.0022364864 0.002442067 0.0013811197 -0.0022990874 0.00016230438 -0.0020067687 0.001349715 -0.0005491924 -0.0011566106 0.00213393 -0.00049648667 -0.0013910687 -0.002057806 -0.0021719246 -0.0012598118 -0.0007193226 -0.0017235428 -0.0022847967 -0.0013780412 0.0024870588 0.0008797392 0.0020024194 -0.0002023282 0.0020529241 -0.0013599598 0.0012305425 0.0017768345 -0.0011254039 -0.00031573628 -0.0015624395 0.0020271442 0.000697759 0.0017194119 0.00020498456 -0.0018123656 -0.0005829629 -0.002431793 -0.0022477824 0.0011291897 -0.0024172794 -0.002299507 -0.001881527 0.0003469244 -7.775077e-05 -0.0012023115 2.5975052e-05 0.0004097554 0.0012314247 -0.0013522905 0.0011413889 -0.0024805393 0.0002072514 -0.0012609926 -0.0016574686 -0.002107335 3.8194004e-05 0.002174275 -0.00069378887 0.00048742024 -0.001041854 -0.0017561798 -6.639655e-05 0.0005821765 -0.0013730138 0.0016290192 0.0013521188 0.0011756283 0.0008029777 0.001749808 -0.0005304944 0.0017960686 0.001910056 0.0011061763 -0.0015839228 -0.0015083712 0.002355833 0.002488716 0.0020865109 0.00028160843 -0.0019060334 -0.0008868638 -0.0020499863 -0.0011256462 -0.0011787191 0.0013724118 -0.0017714879 -0.00226586 -0.00020214566 9.831181e-05 -0.0011918803 0.00015378976 -0.0019000121 0.00024239486 -0.0018100553 0.0022676573 -0.00027663563 0.0014597005 0.0012153077 -0.0021345685
27 -0.0020384258 -0.0017879953 -0.0015048056 -0.0015324211 0.0010654952 0.0013603377 -0.002301661 0.0018026894 0.0013513588 0.0002934134 -0.0007810971 -0.00031698192 -0.0005925816 0.0011548079 -0.00049359025 0.0020186496 0.0015048217 -0.0011461693 0.0018468453 -0.00047762366 -0.00026038964 -0.001942734 0.0006975203 -0.0012956938 0.0023890217 0.0017044945 -0.002333554 -0.0021476364 -0.0017498203 0.0021440517 -0.002411023 0.001053774 -0.0018023117 0.0007907876 -0.0015660676 0.0008809876 0.0020537125 0.0016871016 0.0019263746 -0.0006685341 -0.0014440509 -0.00010696449 -0.0018992787 -0.0019230914 0.00033569033 -0.0015045181 0.0008890843 0.0019449336 -0.00047548674 0.0021260139 -0.00096643507 -0.00060802395 0.0003757449 -0.0016572892 0.0007934666 0.0022501587 0.0005687047 -0.0009588861 0.0020381636 -0.0020650316 0.001457707 0.002096367 0.0019425657 0.0020214994 0.0024576131 -0.0014368122 -0.001971259 -0.0013698309 -0.0010690534 -0.0019601388 -0.0018341402 0.0010302516 -0.002449556 -0.0013400727 0.002427461 0.0008986038 -0.0012972661 4.750141e-05 0.0014377884 -0.002497631 -0.0004205925 0.001551968 -0.00025967625 -0.0020293947 0.0022293953 -0.0021916484 2.3307512e-05 0.0010658028 -0.0005260564 -0.00249098 -0.0012985489 -0.0011742577 0.0012753571 -0.0022990047 0.00048526563 7.848977e-05 -0.0009173885 0.002476552 -0.0017244818 -0.00097211206 0.0016133161 -0.0021979439 0.0004717093 -0.0021864246 -0.0024196485 -0.0010636348 -0.0014994231 0.0020705527 -0.0016439066 0.00074722734 -0.0012983403 0.00077590207 0.0015566992 0.0023730341 0.0012676422 0.00024433504 -0.0013251075 -0.0009251934 0.001649023 -0.0009961774 0.0005860308 -0.00078484474 0.00031464663 0.00025460054 -0.0016515183 0.00077605806 0.0023390562 0.0015772199 -0.0004031991 -0.0016470372 -0.0022093821 0.002066615 -0.00074958114 -0.0020182237 -0.0017858853 -0.0006249049 0.002006045 -3.6588637e-05 0.0013659694 -0.001238335 -0.0023671084 -0.001481871 -0.0016643745 -0.002078821 -0.0017708584 0.00114052 -0.00016148249 0.0008643868 -0.0006067273 0.00060693733 -0.0020618385 8.112169e-05 0.0021920954 0.0003797966 0.00012594531 -0.0017348232 -0.0022671546 2.7718488e-05 0.0011914345 -0.00220985 -0.0014564657 0.0022119824 -0.00093691016 0.00080168154 -0.0005377007 0.00095536467 0.001780495 7.492746e-05 -5.7696598e-05 -0.00072916865 -0.0020339547 -0.0011151865 0.0007344857 -0.0007897776 0.0021674554 0.0006219561 -0.0020230936 0.002324184 0.0015259474 -0.00057374744 -0.00038073724 -7.1767485e-05 -0.0018779412 -0.0005409615 -0.0001669405 -0.00088012544 -0.0023041037 -0.00080872653 -0.0010844609 -0.0009136349 0.0011592649 0.0011859545 0.0017570434 -0.0005986253 -0.0014514824 0.0015015225 0.001993253 0.001445917 0.0024967152 -0.000783107
28 0.00074068224 0.00057391427 0.00029513356 0.002408618 0.0019796602 0.001385968 -0.0012989182 0.000706492 0.001703965 -0.0010859466 0.0016660397 -0.0011359694 -0.001235744 0.0012611623 0.001998296 -0.0023206444 0.0013682474 0.0022073989 0.00012903684 -0.0006056103 -0.0014524373 -0.0017878392 -0.0010066283 0.00045737647 -0.0017185044 -0.0013410565 0.0024462165 -0.0012520498 0.0006860669 -0.0018445116 0.0021813363 0.0024794824 -0.0010640189 0.0005078714 -0.0017417213 -0.002435692 0.0021342519 0.0016915677 -0.0015552607 0.0006820322 0.0012758023 0.0022336538 -0.0009052303 -0.00017010327 -0.0011530456 0.0007407083 -0.0016678104 -0.00030744076 0.0010353008 -0.0014957868 0.0012240615 0.0017774766 -0.0014835742 -0.0021010633 -0.0021382615 0.0013930295 -0.0017241847 -0.0023918678 0.00018935301 0.00076805707 -0.001765446 -0.00073656917 -0.0019016581 -0.0016352168 -0.0009084069 0.0015170844 -0.0021894595 -0.0011285815 0.0008700632 0.00013000867 0.0023541949 0.0005079962 -0.00064638164 0.0017245063 -0.0011938256 0.0014973427 0.0007813389 0.0002779367 -0.0016118508 -0.0016334911 -0.0017364651 -0.0022156085 0.0018761693 -2.7936185e-05 0.0011486199 -0.0018709402 0.0023658783 0.0023094444 0.0004000687 -0.0018073069 -0.00055855897 0.00021476625 0.00025189575 -0.001928895 0.00084326207 0.0004982301 0.0014928142 0.000801011 0.0005801867 -0.0017585948 -0.00016392558 -0.0011050096 -0.0017012471 -0.00026495033 -0.00044815592 -0.00041975896 0.0005805963 0.0016631293 -0.0001340711 0.0015506912 0.0014339904 0.0011767533 0.0009269803 0.0010447928 0.00032570306 0.0016703974 -0.0013336125 0.0006869822 -0.0010140825 0.0015121065 -0.0006308063 0.0016103531 -0.0013177725 0.0012473515 0.00065681967 0.00039196643 0.00047671376 0.0010843109 -0.0024678537 0.0017180895 -0.00094208925 -0.001810427 -0.00023421552 -0.0008686116 -0.0014748633 0.00070974906 -0.0016757693 0.0016154768 -0.000784063 0.0005189013 0.0021682745 0.0009990763 0.00092459563 -0.0023976706 -0.0010748437 -0.0020236766 -0.0023075566 -0.000446758 0.0022584675 0.000111483736 -0.0015699037 -0.0021726885 -0.0017609283 0.0020618672 -0.0021697902 -0.0022494714 -0.0020590385 0.0006297128 0.0005396891 0.0017638663 0.0015072869 0.0022028075 0.0017117676 0.0013900399 -0.00047068158 0.00035329815 0.00089601846 -0.00027692434 -0.0024994644 0.0013454193 -0.00055414916 -0.0023814612 0.0024104821 -0.00041161338 0.0023001633 0.0005261728 0.0016523553 0.0021091145 -0.00042425166 -0.0023288708 0.0024067252 -0.00049252575 0.0019022208 0.0009261882 -0.0021884858 -0.00020847237 0.0010706335 -0.00026623392 -0.001208592 -0.0010508582 0.0018761987 -0.0012837368 -0.0016504154 -0.0014242639 -0.001364187 0.0024290276 -0.00104601 -0.0019098031 -0.0020225206 0.0010355948
29 -0.0014608037 0.0024249451 0.0004900736 0.00065297564 -0.0011817368 -0.00097513676 0.0012327165 0.00096533145 0.0013001668 0.00062344107 0.0002873987 0.00017408188 -0.0006166515 -0.00053723133 0.0002504238 -0.00040565524 0.0019777333 0.0001831865 0.0003027036 -0.0014917717 -0.0020347456 -0.0018622612 0.0010905596 0.0011004901 -0.0006343961 0.0018215384 8.9938054e-05 -0.0009914711 -0.0011347263 -0.0003612258 -0.0023609581 -0.0016955875 -0.00096359255 -0.0022135444 0.00083203916 0.0020817826 -0.0016736558 -0.0015809729 -0.0012453824 -0.0018094087 -0.00013366621 -0.0003812604 -0.00013237866 0.0024178023 0.00046277908 0.0011528714 -0.00055162073 0.0010671092 -0.0010791757 0.0020582946 0.0007131719 -0.0022205862 0.0012431042 -0.00083946646 0.0019129915 -0.0002806962 -0.000990262 0.00027391408 0.0012972807 0.00071498775 0.0006814599 -0.000113009475 -0.002012107 0.0015408178 0.0023414255 0.0017635473 0.0016525765 0.00025177933 -0.00083563954 -5.2107964e-05 -0.0012354547 0.00030230312 -0.0024764212 0.0016402374 -5.471753e-06 0.00029960275 -0.0012776017 0.0018801251 -0.0012162721 -0.001626504 0.0018714978 0.0009701834 -1.4451798e-06 -0.0009150618 0.0010916188 0.00022366317 -0.00030653947 -0.0015701225 -0.0024791546 -0.0024467881 -6.14468e-05 -0.00024516578 -0.0011940593 0.0019163461 0.0002856839 0.001036209 -0.0011055451 0.00051510846 0.00043491297 -0.0004611942 0.0002219989 0.0010870779 0.0018514106 0.0012471422 9.734649e-06 0.0014970363 -0.00075215125 0.0002082577 -0.0016642731 -0.0013871411 8.657714e-05 0.0024715695 -0.00024307217 0.002257241 0.0006683385 0.00037848647 -0.001209186 0.00013212021 0.00085050263 0.0008195003 -0.0013590365 0.0024723671 0.00012926431 -0.0009683493 -0.0012499293 0.002100858 -0.0012105581 -0.000382588 -0.0023949794 -0.00032642134 0.001013434 0.0024109455 1.2967503e-05 0.0017466638 0.001060063 -0.0014314869 0.0016816459 -0.0017801877 -0.00023765839 -0.0013321755 0.002496142 0.0012442081 0.0006361455 -0.0022084832 0.0020357468 0.0007506418 -0.0022397013 -0.0020783208 0.0006465616 0.0003879047 0.002155811 0.0019268524 0.0024845316 -0.0009575853 -0.0011793637 -0.0021816264 -0.00010851142 0.0011797326 -4.05591e-06 0.0016415827 -0.0004277036 -0.0024881058 -0.002084321 -0.0021682256 0.0016510538 -0.00021091849 -0.00043331948 0.0004990997 0.00058077625 0.00092402403 -0.002098589 0.0014901343 0.000660297 -0.00042216596 0.00029711286 -0.00023036706 -0.0024391036 0.0010586008 0.0007164532 0.0003167137 0.0024543982 -0.0018979242 -0.00084494473 -0.0012655389 0.0018814281 0.00055870134 0.0012662187 -0.00036937953 -0.0017509854 -0.0011770678 0.00038389023 0.00017692684 -0.0013130301 0.00048883236 -0.0015589666 0.002305647 0.0016838755 -0.0019516656 0.001720503 0.0021804948
30 0.00055200816 0.0016171215 -0.0017576993 0.0001538014 3.5895733e-05 0.00079122745 0.0018145214 0.00040765526 0.0019223746 -0.0011699444 -0.0019327888 -0.0022634214 0.0005399715 0.0005492917 0.00039598788 0.00097600813 -0.0016233161 0.0011197815 -0.0011370501 0.00018828432 -0.00040689297 0.0012134188 0.001437102 0.00068722386 0.0021499814 0.0022889366 -0.0022472262 0.0020456053 0.000756067 -0.002224212 0.0022924026 0.0012017626 0.0013107304 0.0019117557 -0.0006398427 0.00054741907 4.4023618e-05 0.0012826503 0.0012753082 0.0018895874 0.000232602 0.0007969346 -0.0010785665 -0.00061781856 0.00046124565 -0.0022484087 -0.00033382466 0.0024583228 -0.0023282664 0.0013921573 0.00073959935 0.0016521923 0.0022785235 0.0012140605 0.0018303888 0.0023186267 0.0005484361 0.0023467438 -0.0020400505 -0.00021416508 0.0003895983 -0.000475985 -0.0019837008 -0.0017586878 -0.00223414 -0.0010353908 0.0019723312 0.0020387098 -0.0019890617 0.002027532 0.0013213407 0.0022737742 0.0014895918 0.0020323042 -0.0007977736 0.0022054412 0.00022892375 -0.0014246678 -0.0005255712 0.0012447322 -0.0018658167 0.00056018657 0.0018813941 -2.0192238e-05 -0.0014078295 0.0009009342 0.00014486792 -0.0007843148 -0.002181298 -0.00016532419 0.0012605328 -0.0017224961 0.0007958687 -0.0013854819 0.00041082292 0.0001441359 -0.0011982655 0.0020735185 -0.0006517392 -9.876955e-05 0.0005101708 -0.0021342605 0.0010087455 -0.001423119 -0.0002442922 -0.0015770986 -0.0007739803 -0.0013291031 0.0014366833 0.002296966 -0.0019264487 0.0008460551 -0.00029367837 0.0006289524 0.00068375515 0.0018226961 -0.0008789259 0.0021902174 0.00033613085 2.557179e-05 0.00061652716 0.0014508716 0.0013438019 -0.0011020702 -0.0007258516 0.0020576543 0.0012999831 -0.0012484896 0.00044286507 -0.0024660903 0.0017279116 0.0021758988 0.0022787694 0.00042663608 0.00020409888 0.0011985807 -0.0011799466 4.9812254e-05 -0.0010180279 0.0010989937 -0.0019843858 0.0014079302 0.00089149293 0.0020256597 -0.00047828187 -0.0016115862 -0.00037368806 0.0024178694 0.0016562752 0.00027750316 0.00017114542 -0.0017255589 0.00029006507 0.00084259803 -6.8071764e-05 0.0010580926 -0.0015747627 0.0016494156 -0.0021913266 0.0006303941 -0.0014472615 -0.00057603954 -0.0018014883 -0.0015626838 0.0016365084 -0.0005867728 0.002426989 0.0016135811 0.00141695 -0.00086483243 -0.0021674647 -7.1356306e-05 9.940239e-06 -0.0004973742 0.0008754125 0.0017867861 -0.0021986472 0.0012641575 0.0006443071 -0.00049641635 -0.001989932 -0.002009185 -0.0014838544 -0.0010904922 -0.00032433053 0.0010339599 0.0022714324 -0.0003420508 0.0024299482 0.0015863823 0.0010594989 0.001932695 0.00084998715 -0.00031323172 -0.00097958 -7.9939375e-05 -0.0011001244 0.0011562242 -0.0017861291 -0.00060434965
31 0.0010391215 0.0022856155 -0.0023043752 0.0012308601 -0.00047181523 -0.0017885088 -0.0010551998 -0.0004092739 0.00027448707 0.0019740448 -0.0013730645 0.00093327113 -0.0010869423 -0.00047446298 -0.0012979057 0.0023857248 -0.001500456 0.00079041533 -0.0011838203 0.00033859233 -0.0013418203 -0.0012253466 0.0019323849 0.0012029861 -0.0019055416 -0.00042191567 -0.0013585966 0.0018407665 -0.0023507625 -0.0012587678 0.0007830474 0.0009862003 -0.0011129498 0.0024635745 -0.000923765 -0.002072 -0.00018393877 0.0017894749 -0.001027377 -0.0001591621 0.0015543792 0.0016304213 0.001117747 0.0010541701 0.0016721492 -0.0019419778 0.0018779752 -0.0015822294 0.0018924493 -0.0010255638 0.0006215798 -0.00030280533 1.4103251e-05 -0.00030971016 -0.0020077769 0.0022291876 -0.00028596888 0.0016871551 0.0021996568 -0.00026611774 0.001614985 0.0010634307 -0.00095027743 -0.0017771225 0.0015944261 -0.0021509465 -0.00014516735 -0.0016307724 -0.0009476787 0.0011604896 -0.00028921035 0.0023249127 -0.0022448183 -0.00039241486 -0.0023478004 0.001970658 0.0024997387 -0.0017650777 0.0018366049 0.0016460698 -0.000114541035 -0.0018068143 -0.0020255803 -0.00014529657 -0.0015367635 -0.0024720854 -0.0003401381 -0.0016949542 -0.0022761952 -0.0009722494 -0.002391692 0.00019730534 -0.0014592799 0.0023349812 -0.00081910635 0.00064011896 0.00020761369 2.8123846e-05 0.0023370637 0.00047542248 0.0015857941 0.0017021424 0.00049736956 0.001847053 -0.0014938855 -0.0024225824 0.0011059525 -0.0021948947 0.0024188221 0.0002747462 -0.00084069755 0.0014957725 -0.0017433172 0.0014947136 0.001675385 0.0017677839 0.002395187 0.00090225437 0.001338918 -0.0020761858 0.0015704012 0.0012001886 -0.0011060446 0.0022037984 0.00046144612 0.0018165489 0.00035026646 -0.0019568577 -0.0021172767 -0.0005288876 -0.00055967364 0.0001118693 0.0010418454 0.0011530817 -0.0016997322 0.0004937013 0.0017320514 -0.0021370244 0.00048411405 0.0020343098 -0.002423704 0.0022377176 0.00027545216 0.00064664683 -0.0023001747 -0.001135359 -0.0013659784 -0.00013613026 0.0003446557 -0.002001396 -0.0015765207 -0.0011755666 0.0019747294 0.00045884727 5.9203478e-05 -0.0002506792 -0.00050716824 -0.0008207181 0.001780415 0.0023408318 0.0014424026 -0.0015357235 0.00092281844 -0.0012897498 -0.0006585469 0.0015419535 0.00036724587 0.0010307163 0.0010099648 -0.00051020086 0.0011952785 -0.000983917 0.0021385886 -0.001531344 0.0006807118 0.0017546164 -0.00061986863 -0.0020625493 0.0010535314 0.000624825 8.38493e-06 0.0021578483 -0.00047269557 0.0017780731 0.0018159761 0.00029377895 0.0012905672 -0.001184935 -0.0014165634 -0.0011459062 0.0006448352 0.0018165694 -0.000683876 -3.8369326e-05 0.0008017933 -0.0011570752 0.0023741089 -0.0018216467 0.00053567905 0.001723561
32 -0.0013575982 0.0022982736 -0.00085872586 -6.3424e-05 0.00036529708 -0.0022214407 -0.00055272225 -0.00032533193 0.0022763163 0.0010625564 -0.0021138312 0.00010238704 -0.00050717406 -0.00010729255 -0.0004979684 -0.0014200514 -0.0017902267 -0.00068004394 -0.0010102734 0.0015544589 0.00033379253 0.0021304237 0.00042100786 0.002369938 -0.00048797298 0.0018402035 0.0018184702 0.0011367335 -0.0020354255 -0.00027455995 -0.001377756 0.00038886536 -0.0022758718 -0.0017909082 -0.0016912231 -0.0023150274 -0.0017225489 0.001954325 0.0008732155 -0.0012575543 0.0015785513 3.0254014e-05 0.0024680626 -0.00095335185 -0.0015989986 0.001389992 0.0003145039 0.0018718815 0.0014760853 -0.00015342841 -0.0022353223 -0.00017159432 -0.0007771405 -4.0144427e-05 -0.001313259 0.0016554771 0.001348539 0.001247009 -0.0017698267 0.0017422857 -0.001188508 -0.0016764656 0.0004784849 0.001979703 -0.00013458659 -0.0009950348 -0.002037233 0.0010516988 -0.0024930008 -0.0018301259 -0.0005486527 -0.0010049444 -0.00047177938 0.00023877388 0.0022768574 -0.0015881383 -0.0024489516 -0.0019541634 0.0020852052 -0.0012127629 -0.0017218008 0.0020732363 -0.0020187614 0.0010909294 -0.0005474448 -0.0020406744 -0.0024550476 0.0012120672 -0.00038956618 0.0021192688 0.0019535567 -0.0016059475 0.0006175402 -0.0022288116 -0.0024008218 -0.0004891509 -0.0001339959 3.483426e-05 -0.00093033223 0.0014637168 -0.0015348246 -0.0024180475 -0.0001573104 -0.0011613452 0.00012074737 -0.0007841429 -0.0014109226 -0.0020902953 0.00036268472 0.0010761085 -0.00015426753 0.00042318343 0.0010821118 -0.00039238064 0.000972959 -0.00042361463 -0.00078171375 0.0008643379 0.002081525 0.0016373391 -0.0011735728 0.00178278 -0.00057512696 -0.0016657042 0.0013911366 2.3094472e-05 -0.00075620704 -0.0018223778 0.0023881132 -0.0013734868 0.0024468005 0.0008739659 0.0011231827 -0.00092526467 0.0024238168 0.0023254636 0.0016775704 -0.0021629129 0.0014199484 -0.0022788006 0.0013734831 0.0015749251 -0.002145054 -0.000699206 -0.00092249596 0.0012560303 -0.001557551 0.0021386622 -0.0007426387 0.0021040477 0.0008086392 0.0015946575 0.0011547869 -0.00038084784 0.0022649765 0.0024971655 0.00058078975 0.000863123 -0.0006779453 0.001070474 0.0011427584 -0.00037569762 -0.000116088195 -0.0016308104 -9.332714e-05 -0.0018760302 -0.0024740326 0.0007723174 -0.002491255 -0.0011440116 0.00032434007 0.0013618418 -0.001626286 -0.0006731966 0.00041080522 -0.0021221237 0.001360659 0.0007186115 0.001867115 0.00021679047 0.0020413143 -0.0018544307 0.00061376905 -0.0018613318 -0.0019662743 0.00057213125 -0.002213627 0.0015449687 0.0021697609 -2.6571099e-05 -0.0020562434 -0.0019191632 7.235119e-05 0.00069583394 -0.0023056678 -0.00027267286 0.0018434105 -0.0020103478 0.0023271916 0.00020263135
33 -0.0024164268 0.000528245 0.0016268538 -0.0024132514 0.00013038982 -0.0021512578 0.0021116175 0.0017912779 2.609822e-05 -0.0020934273 0.0006302288 0.0018259566 -0.0020047654 -0.0008465329 -0.0011136436 -0.0014807725 0.0023668883 0.0010157081 -0.00036364794 8.441741e-05 0.000596863 0.002269818 -0.0017536122 0.001628282 0.00016452721 -0.0013940829 -0.0016315463 0.0003599918 -0.0017044023 -0.00065612886 0.0012171767 0.0010639867 -0.0005330283 0.00020758924 -9.3271025e-05 -2.863165e-05 -0.0015545369 -0.0017341028 -0.00058946037 0.0024809414 0.0006454403 0.0017340337 0.00054999115 0.00044577778 0.0004704194 0.0010316141 -0.0020972362 0.0008810216 8.7475404e-05 -0.0011720287 -0.0009981593 0.00036428333 0.0023388523 0.0012786875 -0.00088642386 0.0023424183 0.002198419 0.001535527 -0.00059949665 0.0011586612 -0.00027224212 0.002265851 -0.00046282564 0.0016795588 0.002358154 -0.002434825 0.000974284 -0.0014693108 -0.0010511297 -0.0011006114 -0.0021692326 0.00022871117 -0.001573751 -0.0010489925 -8.049887e-06 -0.00193335 -0.0020894888 -0.00063480285 -0.0014885339 0.00058365264 -0.0016384937 0.0017294581 -0.0007354105 -0.000108756125 0.0019196612 0.0012849455 -0.0023310524 -0.000756396 -0.0007727265 -0.0018961376 -0.0021005452 -0.0018947514 0.00039844518 -0.00010733958 0.0024361946 -0.0016725069 -0.0016806644 0.0016469103 -0.0016432628 -0.0007607308 -0.0013563302 -0.001042133 0.0011989584 0.0016073263 -0.0011506119 -0.0007898712 0.0014730059 0.00043596723 -0.0018069907 0.0022371942 -0.001956889 0.0009917817 -0.0015116504 0.0003247836 0.0020527947 -0.0010779875 -0.0011259293 0.00010441453 -0.00073334004 0.0005605784 -0.000928286 -0.0013722237 -0.0016216794 -0.00010279706 0.0014481461 0.0006210888 0.001498091 0.0019151629 -0.0024459183 0.0006036898 0.0017775688 0.00093802623 0.0021881983 -0.0018466318 -0.0011585879 0.0022247145 0.00090596685 0.0019658469 -0.0023462635 0.0021093814 0.0017526913 0.002291019 -0.0013275995 -0.00208731 0.0018786644 -9.856513e-05 -0.002343738 -0.0006906426 0.00075628515 6.2573235e-05 -0.0018326339 -0.0021216336 0.001967017 0.002041419 0.00036259508 -0.0017333346 0.0012905989 0.00035881368 -0.0011870032 -0.0015839702 -0.0007976949 0.0010520408 -0.0024298145 0.0016415338 0.0023915116 0.00051215687 -0.0023262645 0.0023365156 0.001430993 0.0004529697 0.0005533716 0.0010922223 0.0009865889 -0.00236914 -0.00052830507 0.0013491013 0.0011412811 0.0023715799 -0.00055058836 -0.0006229597 -0.0013661488 0.0003085311 -0.0015068996 0.0010263515 -0.0016486567 -0.00087829493 -0.001751804 -0.0016478493 0.0016945661 -0.00198546 -0.0011502334 0.0010113916 0.00041045505 -0.00037738564 -0.0009223446 0.00036061695 0.0024153767 0.0009047389 -0.002048368 0.0016020387
34 0.001240544 0.0021196678 0.001466671 -0.0012580219 -0.0017889487 1.4371239e-05 0.0012342909 -0.0012452906 -0.0023114374 0.00026284158 0.0016170312 0.0023826696 -0.0014758729 -0.0003663816 -0.002157485 0.0018695821 0.0010752634 0.0009412817 -0.001116645 0.0019851075 0.00031195278 -0.0012573233 6.0322927e-05 -0.0024666362 0.0018674056 0.00070023723 -0.0020956188 -0.0009785849 0.00021631364 0.0010215479 -0.0008655762 0.0013673892 0.0011894556 -0.0017245254 0.00047466508 -0.0017740971 0.0018405695 -0.0022064473 0.0016408935 0.0011016822 -0.0016639875 -0.0017622048 -0.0019322997 0.0014634789 -1.50904525e-05 -0.0014149621 0.001024965 0.00019388343 0.001607589 0.00074866414 2.7786009e-05 -0.00095914723 0.002314543 0.0015864903 0.0010564739 0.0006510571 0.0020782682 -0.00078007963 0.0023440677 0.0012559872 -0.0021430138 0.0019907136 -0.00041518686 0.0021332074 7.9898164e-05 0.0018013236 0.0009545644 -0.0023274508 0.00030236295 -0.001461415 0.00021470757 -0.0019714627 0.0006868844 0.0009644099 0.0020607961 0.0011414138 0.001734389 -0.00021960377 0.00236498 -0.00077273045 0.0020187572 0.0017736242 0.002297943 -0.0007740641 1.444784e-05 -0.0001260438 0.002395146 0.0013559479 0.0024495553 -0.00060374883 0.000882945 0.0018439577 -0.0020953503 0.0014436515 0.0018431363 -0.001977507 0.0019441107 0.0004907588 -0.000391145 5.405117e-05 -0.0022603052 -0.002204176 0.0006824783 -2.7398113e-05 0.0012665926 0.0017365683 -0.0020494557 -0.0019320374 -0.0013632243 -0.00085589255 0.00051042694 -0.0013534597 -0.0020866503 0.00076527917 -0.0018990319 0.0022895364 -0.00043545244 -0.0005348574 -0.0013823521 -0.0021096398 0.00031444966 0.00048193452 0.0010483626 0.00046385964 0.0017854772 0.0015359307 -0.0023557262 -0.0014747983 -0.0014209998 0.00022552186 0.0023785727 -0.0003696964 -0.0021566048 -0.0015515024 -0.0018238449 0.001619894 1.509604e-05 -0.0017595019 -0.001228739 -0.00012700027 -0.0008776813 -4.6278583e-05 0.0012984157 -0.00208458 0.0007897704 -0.0016388112 -8.113566e-05 -0.0018387577 -9.8939054e-05 0.00064317044 0.0019236333 -0.001280497 0.00041681086 0.0006615848 -0.00048113335 0.0012592161 0.00021883333 -0.0017967192 -7.657101e-06 0.0017321357 -0.0020167264 -3.1877775e-05 -0.0013633787 0.0017439388 0.0024916371 0.00079629896 -0.0009948927 -0.0010875323 0.0008748844 -3.317115e-05 0.0009704528 0.0008960881 -0.00028300495 0.0005069983 -0.0012153756 0.0016598864 -0.0007205588 2.0151958e-05 0.0004453545 -0.0021962854 -0.002110586 0.001088667 -0.0011702558 -0.00031882315 -0.00040597888 -0.0011491862 7.561082e-05 0.002020394 0.002242221 0.0018712431 0.0022201906 -0.0022082883 0.0022415728 -0.0016180369 -6.0309656e-05 0.0024223793 -0.0005499178 -0.0015397246 0.0018352601 -0.0008437064
35 0.000566192 0.00072003505 -0.00040981476 -0.0015345474 -0.0016835275 -0.00085071055 8.101994e-05 0.0011633495 0.0024816776 0.0018411307 -0.00095538876 -1.7595245e-05 -0.000111763366 -0.000699054 0.0014546863 -0.0014697504 -0.0023591954 0.0023280508 0.000611522 0.0012032341 -3.454904e-05 -0.0005442444 0.0013651508 -0.0021063157 -0.0017072725 -0.0008960548 -0.0014201783 -0.0017828011 -0.00097000354 0.0014923168 -0.0016156515 0.00033934764 -0.00019000587 -0.00016811048 0.001578555 0.0015931181 -0.0022092243 0.00037617376 -0.0013870278 -0.0018929159 -0.0007781461 0.0018918556 0.0009833579 -0.0019483343 0.0008140539 -0.0015685778 -0.0008662677 0.0017636227 -0.000630258 -0.00012116204 0.0010303324 0.0022264929 -0.00082011695 -0.0015123689 0.00021639979 0.0023993207 0.00018470385 0.0012171937 -0.0016600674 -0.0017139756 0.0006678689 -0.0019473529 -0.00018495461 -0.0006000084 0.0024036039 0.0021724529 -0.0021435025 -0.0024299878 0.00018014363 0.0020184396 -0.000116654905 0.0013026376 0.0018006745 -0.0016879854 0.0010411323 3.6003068e-05 0.00059449347 -0.0018759565 -0.00096730166 -0.0007511622 0.0014731251 0.0013993029 -0.0017255459 0.0018856297 0.0018982794 -0.0008492019 0.002420294 -0.0024535335 -0.0012605286 -0.00036201696 0.0012165359 -0.0017843434 -0.0008579638 -0.00044774776 -0.002451802 -0.0005202985 0.00053462945 -0.0017550022 0.0016534422 0.0024283673 0.0008980471 0.0021852786 0.0012654215 -0.002316242 0.0007002917 -0.0018810516 0.0006425688 0.0013947319 -7.2453404e-05 -0.0015093845 0.0005194547 -0.0006441795 -0.0020892466 0.00076039974 -0.000525262 0.0019840412 -0.0017818185 0.0013297063 -0.0020190068 -0.0011574957 0.00012635766 0.00010484643 -0.0006261164 -0.0018610975 0.0024374472 -0.0017816001 0.00093736383 0.0020462936 -0.0024400407 -0.0013656708 -0.0010775261 -0.0013024246 -0.0019014835 -0.0008758926 -0.0001352774 0.002456698 -0.0020854142 -0.0006130651 -0.0008925637 0.0005201923 -0.0018737051 0.0017764154 -0.0003687644 0.0005368313 0.001601065 -0.00058095006 0.0012696441 0.0021862118 0.0022369698 0.0005969757 0.0013059077 -0.0015806758 -4.8307236e-05 0.0011280095 0.0015502791 5.102693e-05 -0.00096935895 -0.0010472351 0.00098213 0.0017549852 0.0009824007 -0.002314256 0.0015317933 0.0015353747 0.0018329956 -0.0011951223 0.002447836 -0.00028318842 -0.00081593834 -0.0014813483 0.00016004476 0.0012246261 -0.001273677 -0.002187761 0.00087261386 0.00056973356 -0.001375317 -0.0016276839 0.0007657029 0.002413345 0.0006202925 0.0008785764 -0.0004208549 -0.0017162436 0.0017517959 0.0004674059 -0.0023491706 1.1597294e-05 0.0015183436 0.0009774521 0.0023277295 -0.0016204591 0.0014685281 0.0009776815 0.0013628253 -0.0018117239 -0.0007563066 0.0003612279 0.0015282235 -0.0010637614
